{"learner":{"attributes":{"best_iteration":"72","best_score":"0.0045454545454545496"},"feature_names":["N","P","K","temperature","humidity","ph","rainfall"],"feature_types":[],"gradient_booster":{"model":{"cats":{"enc":[],"feature_segments":[],"sorted_idx":[]},"gbtree_model_param":{"num_parallel_tree":"1","num_trees":"2706"},"iteration_indptr":[0,22,44,66,88,110,132,154,176,198,220,242,264,286,308,330,352,374,396,418,440,462,484,506,528,550,572,594,616,638,660,682,704,726,748,770,792,814,836,858,880,902,924,946,968,990,1012,1034,1056,1078,1100,1122,1144,1166,1188,1210,1232,1254,1276,1298,1320,1342,1364,1386,1408,1430,1452,1474,1496,1518,1540,1562,1584,1606,1628,1650,1672,1694,1716,1738,1760,1782,1804,1826,1848,1870,1892,1914,1936,1958,1980,2002,2024,2046,2068,2090,2112,2134,2156,2178,2200,2222,2244,2266,2288,2310,2332,2354,2376,2398,2420,2442,2464,2486,2508,2530,2552,2574,2596,2618,2640,2662,2684,2706],"tree_info":[0,1,2,3,4,5,6,7,8,9,10,11,12,13,14,15,16,17,18,19,20,21,0,1,2,3,4,5,6,7,8,9,10,11,12,13,14,15,16,17,18,19,20,21,0,1,2,3,4,5,6,7,8,9,10,11,12,13,14,15,16,17,18,19,20,21,0,1,2,3,4,5,6,7,8,9,10,11,12,13,14,15,16,17,18,19,20,21,0,1,2,3,4,5,6,7,8,9,10,11,12,13,14,15,16,17,18,19,20,21,0,1,2,3,4,5,6,7,8,9,10,11,12,13,14,15,16,17,18,19,20,21,0,1,2,3,4,5,6,7,8,9,10,11,12,13,14,15,16,17,18,19,20,21,0,1,2,3,4,5,6,7,8,9,10,11,12,13,14,15,16,17,18,19,20,21,0,1,2,3,4,5,6,7,8,9,10,11,12,13,14,15,16,17,18,19,20,21,0,1,2,3,4,5,6,7,8,9,10,11,12,13,14,15,16,17,18,19,20,21,0,1,2,3,4,5,6,7,8,9,10,11,12,13,14,15,16,17,18,19,20,21,0,1,2,3,4,5,6,7,8,9,10,11,12,13,14,15,16,17,18,19,20,21,0,1,2,3,4,5,6,7,8,9,10,11,12,13,14,15,16,17,18,19,20,21,0,1,2,3,4,5,6,7,8,9,10,11,12,13,14,15,16,17,18,19,20,21,0,1,2,3,4,5,6,7,8,9,10,11,12,13,14,15,16,17,18,19,20,21,0,1,2,3,4,5,6,7,8,9,10,11,12,13,14,15,16,17,18,19,20,21,0,1,2,3,4,5,6,7,8,9,10,11,12,13,14,15,16,17,18,19,20,21,0,1,2,3,4,5,6,7,8,9,10,11,12,13,14,15,16,17,18,19,20,21,0,1,2,3,4,5,6,7,8,9,10,11,12,13,14,15,16,17,18,19,20,21,0,1,2,3,4,5,6,7,8,9,10,11,12,13,14,15,16,17,18,19,20,21,0,1,2,3,4,5,6,7,8,9,10,11,12,13,14,15,16,17,18,19,20,21,0,1,2,3,4,5,6,7,8,9,10,11,12,13,14,15,16,17,18,19,20,21,0,1,2,3,4,5,6,7,8,9,10,11,12,13,14,15,16,17,18,19,20,21,0,1,2,3,4,5,6,7,8,9,10,11,12,13,14,15,16,17,18,19,20,21,0,1,2,3,4,5,6,7,8,9,10,11,12,13,14,15,16,17,18,19,20,21,0,1,2,3,4,5,6,7,8,9,10,11,12,13,14,15,16,17,18,19,20,21,0,1,2,3,4,5,6,7,8,9,10,11,12,13,14,15,16,17,18,19,20,21,0,1,2,3,4,5,6,7,8,9,10,11,12,13,14,15,16,17,18,19,20,21,0,1,2,3,4,5,6,7,8,9,10,11,12,13,14,15,16,17,18,19,20,21,0,1,2,3,4,5,6,7,8,9,10,11,12,13,14,15,16,17,18,19,20,21,0,1,2,3,4,5,6,7,8,9,10,11,12,13,14,15,16,17,18,19,20,21,0,1,2,3,4,5,6,7,8,9,10,11,12,13,14,15,16,17,18,19,20,21,0,1,2,3,4,5,6,7,8,9,10,11,12,13,14,15,16,17,18,19,20,21,0,1,2,3,4,5,6,7,8,9,10,11,12,13,14,15,16,17,18,19,20,21,0,1,2,3,4,5,6,7,8,9,10,11,12,13,14,15,16,17,18,19,20,21,0,1,2,3,4,5,6,7,8,9,10,11,12,13,14,15,16,17,18,19,20,21,0,1,2,3,4,5,6,7,8,9,10,11,12,13,14,15,16,17,18,19,20,21,0,1,2,3,4,5,6,7,8,9,10,11,12,13,14,15,16,17,18,19,20,21,0,1,2,3,4,5,6,7,8,9,10,11,12,13,14,15,16,17,18,19,20,21,0,1,2,3,4,5,6,7,8,9,10,11,12,13,14,15,16,17,18,19,20,21,0,1,2,3,4,5,6,7,8,9,10,11,12,13,14,15,16,17,18,19,20,21,0,1,2,3,4,5,6,7,8,9,10,11,12,13,14,15,16,17,18,19,20,21,0,1,2,3,4,5,6,7,8,9,10,11,12,13,14,15,16,17,18,19,20,21,0,1,2,3,4,5,6,7,8,9,10,11,12,13,14,15,16,17,18,19,20,21,0,1,2,3,4,5,6,7,8,9,10,11,12,13,14,15,16,17,18,19,20,21,0,1,2,3,4,5,6,7,8,9,10,11,12,13,14,15,16,17,18,19,20,21,0,1,2,3,4,5,6,7,8,9,10,11,12,13,14,15,16,17,18,19,20,21,0,1,2,3,4,5,6,7,8,9,10,11,12,13,14,15,16,17,18,19,20,21,0,1,2,3,4,5,6,7,8,9,10,11,12,13,14,15,16,17,18,19,20,21,0,1,2,3,4,5,6,7,8,9,10,11,12,13,14,15,16,17,18,19,20,21,0,1,2,3,4,5,6,7,8,9,10,11,12,13,14,15,16,17,18,19,20,21,0,1,2,3,4,5,6,7,8,9,10,11,12,13,14,15,16,17,18,19,20,21,0,1,2,3,4,5,6,7,8,9,10,11,12,13,14,15,16,17,18,19,20,21,0,1,2,3,4,5,6,7,8,9,10,11,12,13,14,15,16,17,18,19,20,21,0,1,2,3,4,5,6,7,8,9,10,11,12,13,14,15,16,17,18,19,20,21,0,1,2,3,4,5,6,7,8,9,10,11,12,13,14,15,16,17,18,19,20,21,0,1,2,3,4,5,6,7,8,9,10,11,12,13,14,15,16,17,18,19,20,21,0,1,2,3,4,5,6,7,8,9,10,11,12,13,14,15,16,17,18,19,20,21,0,1,2,3,4,5,6,7,8,9,10,11,12,13,14,15,16,17,18,19,20,21,0,1,2,3,4,5,6,7,8,9,10,11,12,13,14,15,16,17,18,19,20,21,0,1,2,3,4,5,6,7,8,9,10,11,12,13,14,15,16,17,18,19,20,21,0,1,2,3,4,5,6,7,8,9,10,11,12,13,14,15,16,17,18,19,20,21,0,1,2,3,4,5,6,7,8,9,10,11,12,13,14,15,16,17,18,19,20,21,0,1,2,3,4,5,6,7,8,9,10,11,12,13,14,15,16,17,18,19,20,21,0,1,2,3,4,5,6,7,8,9,10,11,12,13,14,15,16,17,18,19,20,21,0,1,2,3,4,5,6,7,8,9,10,11,12,13,14,15,16,17,18,19,20,21,0,1,2,3,4,5,6,7,8,9,10,11,12,13,14,15,16,17,18,19,20,21,0,1,2,3,4,5,6,7,8,9,10,11,12,13,14,15,16,17,18,19,20,21,0,1,2,3,4,5,6,7,8,9,10,11,12,13,14,15,16,17,18,19,20,21,0,1,2,3,4,5,6,7,8,9,10,11,12,13,14,15,16,17,18,19,20,21,0,1,2,3,4,5,6,7,8,9,10,11,12,13,14,15,16,17,18,19,20,21,0,1,2,3,4,5,6,7,8,9,10,11,12,13,14,15,16,17,18,19,20,21,0,1,2,3,4,5,6,7,8,9,10,11,12,13,14,15,16,17,18,19,20,21,0,1,2,3,4,5,6,7,8,9,10,11,12,13,14,15,16,17,18,19,20,21,0,1,2,3,4,5,6,7,8,9,10,11,12,13,14,15,16,17,18,19,20,21,0,1,2,3,4,5,6,7,8,9,10,11,12,13,14,15,16,17,18,19,20,21,0,1,2,3,4,5,6,7,8,9,10,11,12,13,14,15,16,17,18,19,20,21,0,1,2,3,4,5,6,7,8,9,10,11,12,13,14,15,16,17,18,19,20,21,0,1,2,3,4,5,6,7,8,9,10,11,12,13,14,15,16,17,18,19,20,21,0,1,2,3,4,5,6,7,8,9,10,11,12,13,14,15,16,17,18,19,20,21,0,1,2,3,4,5,6,7,8,9,10,11,12,13,14,15,16,17,18,19,20,21,0,1,2,3,4,5,6,7,8,9,10,11,12,13,14,15,16,17,18,19,20,21,0,1,2,3,4,5,6,7,8,9,10,11,12,13,14,15,16,17,18,19,20,21,0,1,2,3,4,5,6,7,8,9,10,11,12,13,14,15,16,17,18,19,20,21,0,1,2,3,4,5,6,7,8,9,10,11,12,13,14,15,16,17,18,19,20,21,0,1,2,3,4,5,6,7,8,9,10,11,12,13,14,15,16,17,18,19,20,21,0,1,2,3,4,5,6,7,8,9,10,11,12,13,14,15,16,17,18,19,20,21,0,1,2,3,4,5,6,7,8,9,10,11,12,13,14,15,16,17,18,19,20,21,0,1,2,3,4,5,6,7,8,9,10,11,12,13,14,15,16,17,18,19,20,21,0,1,2,3,4,5,6,7,8,9,10,11,12,13,14,15,16,17,18,19,20,21,0,1,2,3,4,5,6,7,8,9,10,11,12,13,14,15,16,17,18,19,20,21,0,1,2,3,4,5,6,7,8,9,10,11,12,13,14,15,16,17,18,19,20,21,0,1,2,3,4,5,6,7,8,9,10,11,12,13,14,15,16,17,18,19,20,21,0,1,2,3,4,5,6,7,8,9,10,11,12,13,14,15,16,17,18,19,20,21,0,1,2,3,4,5,6,7,8,9,10,11,12,13,14,15,16,17,18,19,20,21,0,1,2,3,4,5,6,7,8,9,10,11,12,13,14,15,16,17,18,19,20,21,0,1,2,3,4,5,6,7,8,9,10,11,12,13,14,15,16,17,18,19,20,21,0,1,2,3,4,5,6,7,8,9,10,11,12,13,14,15,16,17,18,19,20,21,0,1,2,3,4,5,6,7,8,9,10,11,12,13,14,15,16,17,18,19,20,21,0,1,2,3,4,5,6,7,8,9,10,11,12,13,14,15,16,17,18,19,20,21,0,1,2,3,4,5,6,7,8,9,10,11,12,13,14,15,16,17,18,19,20,21,0,1,2,3,4,5,6,7,8,9,10,11,12,13,14,15,16,17,18,19,20,21,0,1,2,3,4,5,6,7,8,9,10,11,12,13,14,15,16,17,18,19,20,21,0,1,2,3,4,5,6,7,8,9,10,11,12,13,14,15,16,17,18,19,20,21,0,1,2,3,4,5,6,7,8,9,10,11,12,13,14,15,16,17,18,19,20,21,0,1,2,3,4,5,6,7,8,9,10,11,12,13,14,15,16,17,18,19,20,21,0,1,2,3,4,5,6,7,8,9,10,11,12,13,14,15,16,17,18,19,20,21,0,1,2,3,4,5,6,7,8,9,10,11,12,13,14,15,16,17,18,19,20,21,0,1,2,3,4,5,6,7,8,9,10,11,12,13,14,15,16,17,18,19,20,21,0,1,2,3,4,5,6,7,8,9,10,11,12,13,14,15,16,17,18,19,20,21,0,1,2,3,4,5,6,7,8,9,10,11,12,13,14,15,16,17,18,19,20,21,0,1,2,3,4,5,6,7,8,9,10,11,12,13,14,15,16,17,18,19,20,21,0,1,2,3,4,5,6,7,8,9,10,11,12,13,14,15,16,17,18,19,20,21,0,1,2,3,4,5,6,7,8,9,10,11,12,13,14,15,16,17,18,19,20,21,0,1,2,3,4,5,6,7,8,9,10,11,12,13,14,15,16,17,18,19,20,21,0,1,2,3,4,5,6,7,8,9,10,11,12,13,14,15,16,17,18,19,20,21,0,1,2,3,4,5,6,7,8,9,10,11,12,13,14,15,16,17,18,19,20,21,0,1,2,3,4,5,6,7,8,9,10,11,12,13,14,15,16,17,18,19,20,21,0,1,2,3,4,5,6,7,8,9,10,11,12,13,14,15,16,17,18,19,20,21,0,1,2,3,4,5,6,7,8,9,10,11,12,13,14,15,16,17,18,19,20,21,0,1,2,3,4,5,6,7,8,9,10,11,12,13,14,15,16,17,18,19,20,21,0,1,2,3,4,5,6,7,8,9,10,11,12,13,14,15,16,17,18,19,20,21,0,1,2,3,4,5,6,7,8,9,10,11,12,13,14,15,16,17,18,19,20,21],"trees":[{"base_weights":[-2.0842358E-2,-2.5959825E-2,4.792691E0,-2.2085493E-2,4.6379533E-1],"categories":[],"categories_nodes":[],"categories_segments":[],"categories_sizes":[],"default_left":[0,0,0,0,0],"id":0,"left_children":[1,-1,3,-1,-1],"loss_changes":[3.006885E2,0E0,2.8007632E2,0E0,0E0],"parents":[2147483647,0,0,2,2],"right_children":[2,-1,4,-1,-1],"split_conditions":[1.2E2,-2.5959825E-2,8.389181E1,-2.2085493E-2,4.6379533E-1],"split_indices":[1,0,4,0,0],"split_type":[0,0,0,0,0],"sum_hessian":[1.2330992E2,1.1254959E2,1.076033E1,5.380165E0,5.380165E0],"tree_param":{"num_deleted":"0","num_feature":"7","num_nodes":"5","size_leaf_vector":"1"}},{"base_weights":[2.3953702E-2,-4.3332165E-1,1.5479813E0,-2.5886083E-2,4.0703967E-1,-2.4451153E-2,3.6004658E0,-2.1439282E-2,1.3113879E0,-2.3302963E-2,4.5195815E-1,-1.892202E-2,1.825911E-1],"categories":[],"categories_nodes":[],"categories_segments":[],"categories_sizes":[],"default_left":[0,0,0,0,0,0,0,0,0,0,0,0,0],"id":1,"left_children":[1,3,5,-1,7,-1,9,-1,11,-1,-1,-1,-1],"loss_changes":[8.530671E1,6.8918915E0,1.1986305E2,0E0,7.4838896E0,0E0,3.1804907E2,0E0,1.9751183E1,0E0,0E0,0E0,0E0],"parents":[2147483647,0,0,1,1,2,2,4,4,6,6,8,8],"right_children":[2,4,6,-1,8,-1,10,-1,12,-1,-1,-1,-1],"split_conditions":[8.9E1,8E1,4.5E1,-2.5886083E-2,4.5E1,-2.4451153E-2,6.0469383E1,-2.1439282E-2,5.9655907E1,-2.3302963E-2,4.5195815E-1,-1.892202E-2,1.825911E-1],"split_indices":[0,0,2,0,2,0,6,0,6,0,0,0,0],"split_type":[0,0,0,0,0,0,0,0,0,0,0,0,0],"sum_hessian":[1.2044628E2,9.319835E1,2.7247934E1,8.504132E1,8.157024E0,1.4057852E1,1.3190083E1,4.512397E0,3.644628E0,8.070248E0,5.119835E0,2.6033058E0,1.0413224E0],"tree_param":{"num_deleted":"0","num_feature":"7","num_nodes":"13","size_leaf_vector":"1"}},{"base_weights":[-1.2440979E-2,8.0348814E-1,-2.5851939E-2,-2.525178E-2,2.5070977E0,-2.3860296E-2,5.4024673E0,-1.8355995E-2,7.0601873E0,4.5211574E-1,-1.6616315E-2],"categories":[],"categories_nodes":[],"categories_segments":[],"categories_sizes":[],"default_left":[0,0,0,0,0,0,0,0,0,0,0],"id":2,"left_children":[1,3,-1,-1,5,-1,7,-1,9,-1,-1],"loss_changes":[5.1560097E1,1.0795523E2,0E0,0E0,1.8367494E2,0E0,1.0511243E2,0E0,1.2573819E2,0E0,0E0],"parents":[2147483647,0,0,1,1,4,4,6,6,8,8],"right_children":[2,4,-1,-1,6,-1,8,-1,10,-1,-1],"split_conditions":[7.48985E1,5.9655907E1,-2.5851939E-2,-2.525178E-2,6.512196E0,-2.3860296E-2,5.9389675E1,-1.8355995E-2,7.109445E1,4.5211574E-1,-1.6616315E-2],"split_indices":[6,6,0,0,5,0,4,0,4,0,0],"split_type":[0,0,0,0,0,0,0,0,0,0,0],"sum_hessian":[1.23223145E2,4.6859505E1,7.636364E1,2.6900827E1,1.9958677E1,1.023967E1,9.719008E0,2.3429751E0,7.3760333E0,5.640496E0,1.7355372E0],"tree_param":{"num_deleted":"0","num_feature":"7","num_nodes":"11","size_leaf_vector":"1"}},{"base_weights":[2.435422E-2,7.6221333E0,-2.5964487E-2,-1.5609349E-2,4.692844E-1],"categories":[],"categories_nodes":[],"categories_segments":[],"categories_sizes":[],"default_left":[0,0,0,0,0],"id":3,"left_children":[1,3,-1,-1,-1],"loss_changes":[5.12759E2,1.18918365E2,0E0,0E0,0E0],"parents":[2147483647,0,0,1,1],"right_children":[2,4,-1,-1,-1],"split_conditions":[2.0182383E1,2.6E1,-2.5964487E-2,-1.5609349E-2,4.692844E-1],"split_indices":[4,2,0,0,0],"split_type":[0,0,0,0,0],"sum_hessian":[1.22181816E2,7.289256E0,1.1489256E2,1.4752066E0,5.8140497E0],"tree_param":{"num_deleted":"0","num_feature":"7","num_nodes":"5","size_leaf_vector":"1"}},{"base_weights":[1.4575096E-3,-2.1702704E-1,3.8963854E-1,-4.9812892E-1,8.9503217E-1,-2.5911672E-2,-5.108361E-2,-2.486396E-2,5.120814E0,-2.0096155E-2,3.562753E-2,4.1376662E-1,-1.814721E-2],"categories":[],"categories_nodes":[],"categories_segments":[],"categories_sizes":[],"default_left":[0,0,0,0,0,0,0,0,0,0,0,0,0],"id":4,"left_children":[1,3,-1,5,7,-1,9,-1,11,-1,-1,-1,-1],"loss_changes":[2.1404033E2,3.868145E1,0E0,8.56802E-1,1.498554E2,0E0,1.7167362E0,0E0,1.1187041E2,0E0,0E0,0E0,0E0],"parents":[2147483647,0,0,1,1,3,3,4,4,6,6,8,8],"right_children":[2,4,-1,6,8,-1,10,-1,12,-1,-1,-1,-1],"split_conditions":[9.5113205E1,9.070937E1,3.8963854E-1,8.993458E1,1.2956506E2,-2.5911672E-2,1.1405125E2,-2.486396E-2,6.4659133E0,-2.0096155E-2,3.562753E-2,4.1376662E-1,-1.814721E-2],"split_indices":[4,4,0,4,6,0,6,0,5,0,0,0,0],"split_type":[0,0,0,0,0,0,0,0,0,0,0,0,0],"sum_hessian":[1.23743805E2,1.2131405E2,2.429752E0,9.727686E1,2.403719E1,9.293802E1,4.338843E0,1.8743801E1,5.2933884E0,3.2975206E0,1.0413224E0,3.0371902E0,2.2561984E0],"tree_param":{"num_deleted":"0","num_feature":"7","num_nodes":"13","size_leaf_vector":"1"}},{"base_weights":[7.3696673E-3,-5.071574E-1,1.4405586E0,-2.5898172E-2,-7.683411E-10,2.0275012E-1,7.4280443E0,-2.497605E-2,2.147929E0,4.2932913E-1,6.0121458E-2,3.489426E-1,-2.1785963E-2],"categories":[],"categories_nodes":[],"categories_segments":[],"categories_sizes":[],"default_left":[0,0,0,0,0,0,0,0,0,0,0,0,0],"id":5,"left_children":[1,3,5,-1,-1,7,9,-1,11,-1,-1,-1,-1],"loss_changes":[9.1694626E1,5.0149536E-1,2.419357E2,0E0,0E0,3.9660828E1,3.0059875E1,0E0,9.89207E1,0E0,0E0,0E0,0E0],"parents":[2147483647,0,0,1,1,2,2,5,5,6,6,8,8],"right_children":[2,4,6,-1,-1,8,10,-1,12,-1,-1,-1,-1],"split_conditions":[1.193937E2,1.17076126E2,9.7E1,-2.5898172E-2,-7.683411E-10,8E1,6.849836E1,-2.497605E-2,6.893876E1,4.2932913E-1,6.0121458E-2,3.489426E-1,-2.1785963E-2],"split_indices":[6,6,0,0,0,0,4,0,4,0,0,0,0],"split_type":[0,0,0,0,0,0,0,0,0,0,0,0,0],"sum_hessian":[1.2235537E2,9.050826E1,3.1847107E1,8.8599174E1,1.9090909E0,2.7247934E1,4.5991735E0,2.0566116E1,6.681818E0,3.5578513E0,1.0413224E0,1.7355372E0,4.946281E0],"tree_param":{"num_deleted":"0","num_feature":"7","num_nodes":"13","size_leaf_vector":"1"}},{"base_weights":[2.5515154E-2,-1.9578862E-1,3.8963854E-1,-2.594074E-2,1.8543013E0,3.914847E-1,-2.4158387E-2],"categories":[],"categories_nodes":[],"categories_segments":[],"categories_sizes":[],"default_left":[0,0,0,0,0,0,0],"id":6,"left_children":[1,3,-1,-1,5,-1,-1],"loss_changes":[2.1281831E2,8.07556E1,0E0,0E0,2.3591719E2,0E0,0E0],"parents":[2147483647,0,0,1,1,4,4],"right_children":[2,4,-1,-1,6,-1,-1],"split_conditions":[1.21E2,1E2,3.8963854E-1,-2.594074E-2,2.6E1,3.914847E-1,-2.4158387E-2],"split_indices":[0,0,0,0,2,0,0],"split_type":[0,0,0,0,0,0,0],"sum_hessian":[1.21921486E2,1.1949174E2,2.429752E0,1.038719E2,1.5619835E1,3.731405E0,1.188843E1],"tree_param":{"num_deleted":"0","num_feature":"7","num_nodes":"7","size_leaf_vector":"1"}},{"base_weights":[2.5515154E-2,-2.5955698E-2,4.93585E0,4.692844E-1,-2.21942E-2],"categories":[],"categories_nodes":[],"categories_segments":[],"categories_sizes":[],"default_left":[0,0,0,0,0],"id":7,"left_children":[1,-1,3,-1,-1],"loss_changes":[3.312926E2,0E0,3.002375E2,0E0,0E0],"parents":[2147483647,0,0,2,2],"right_children":[2,-1,4,-1,-1],"split_conditions":[1.2E2,-2.5955698E-2,7.458565E1,4.692844E-1,-2.21942E-2],"split_indices":[1,0,6,0,0],"split_type":[0,0,0,0,0],"sum_hessian":[1.21921486E2,1.1055372E2,1.1367768E1,5.8140497E0,5.553719E0],"tree_param":{"num_deleted":"0","num_feature":"7","num_nodes":"5","size_leaf_vector":"1"}},{"base_weights":[-1.0132269E-2,-2.5932191E-2,2.0355678E0,-2.3622368E-2,3.5058064E0,5.1729293E0,-2.1584302E-2,-1.983968E-2,7.342569E0,1.1552962E-1,3.9784428E-1],"categories":[],"categories_nodes":[],"categories_segments":[],"categories_sizes":[],"default_left":[0,0,0,0,0,0,0,0,0,0,0],"id":8,"left_children":[1,-1,3,-1,5,7,-1,-1,9,-1,-1],"loss_changes":[1.317247E2,0E0,9.4617935E1,0E0,1.07343E2,1.3978555E2,0E0,0E0,6.9706116E0,0E0,0E0],"parents":[2147483647,0,0,2,2,4,4,5,5,8,8],"right_children":[2,-1,4,-1,6,8,-1,-1,10,-1,-1],"split_conditions":[1.5020122E2,-2.5932191E-2,5.9E1,-2.3622368E-2,2.008349E2,6.9948074E1,-2.1584302E-2,-1.983968E-2,6.139216E0,1.1552962E-1,3.9784428E-1],"split_indices":[6,0,0,0,6,4,0,0,5,0,0],"split_type":[0,0,0,0,0,0,0,0,0,0,0],"sum_hessian":[1.2461157E2,1.00400826E2,2.4210745E1,9.198347E0,1.5012397E1,1.0326447E1,4.6859503E0,3.123967E0,7.2024794E0,1.3016529E0,5.9008265E0],"tree_param":{"num_deleted":"0","num_feature":"7","num_nodes":"11","size_leaf_vector":"1"}},{"base_weights":[-2.329649E-2,1.3742988E0,-2.5904268E-2,3.4699569E0,-2.473612E-2,5.215883E0,-2.1584302E-2,-1.9092945E-2,7.1389604E0,4.068894E-1,1.1133603E-2],"categories":[],"categories_nodes":[],"categories_segments":[],"categories_sizes":[],"default_left":[0,0,0,0,0,0,0,0,0,0,0],"id":9,"left_children":[1,3,-1,5,-1,7,-1,-1,9,-1,-1],"loss_changes":[8.5714005E1,1.2867375E2,0E0,1.0718988E2,0E0,1.1811502E2,0E0,0E0,5.365326E1,0E0,0E0],"parents":[2147483647,0,0,1,1,3,3,5,5,8,8],"right_children":[2,4,-1,6,-1,8,-1,-1,10,-1,-1],"split_conditions":[5.9828544E0,2.4650902E1,-2.5904268E-2,8.1E1,-2.473612E-2,5.5E1,-2.1584302E-2,-1.9092945E-2,1.478889E2,4.068894E-1,1.1133603E-2],"split_indices":[5,3,0,1,0,1,0,0,6,0,0],"split_type":[0,0,0,0,0,0,0,0,0,0,0],"sum_hessian":[1.21921486E2,3.1413223E1,9.050826E1,1.4404959E1,1.7008265E1,9.719008E0,4.6859503E0,2.6900826E0,7.028926E0,5.987603E0,1.0413224E0],"tree_param":{"num_deleted":"0","num_feature":"7","num_nodes":"11","size_leaf_vector":"1"}},{"base_weights":[-8.118104E-3,7.328537E-1,-2.5834784E-2,-2.5360232E-2,2.6517248E0,5.5606866E0,-2.9210928E-1,6.672305E0,-1.5967742E-2,3.562753E-2,-2.353188E-2,6.0121458E-2,3.635388E-1],"categories":[],"categories_nodes":[],"categories_segments":[],"categories_sizes":[],"default_left":[0,0,0,0,0,0,0,0,0,0,0,0,0],"id":10,"left_children":[1,3,-1,-1,5,7,9,11,-1,-1,-1,-1,-1],"loss_changes":[4.6798702E1,1.2162833E2,0E0,0E0,1.7292973E2,6.8223724E1,2.2890456E0,1.9244995E1,0E0,0E0,0E0,0E0,0E0],"parents":[2147483647,0,0,1,1,4,4,5,5,6,6,7,7],"right_children":[2,4,-1,-1,6,8,10,12,-1,-1,-1,-1,-1],"split_conditions":[6.9948074E1,5.996665E1,-2.5834784E-2,-2.5360232E-2,3.9E1,2.9988354E1,4.2E1,5.7E1,-1.5967742E-2,3.562753E-2,-2.353188E-2,6.0121458E-2,3.635388E-1],"split_indices":[4,4,0,0,0,3,0,1,0,0,0,0,0],"split_type":[0,0,0,0,0,0,0,0,0,0,0,0,0],"sum_hessian":[1.22181816E2,4.9549587E1,7.263223E1,3.0545454E1,1.9004133E1,9.11157E0,9.892562E0,7.549587E0,1.5619835E0,1.0413224E0,8.85124E0,1.0413224E0,6.5082645E0],"tree_param":{"num_deleted":"0","num_feature":"7","num_nodes":"13","size_leaf_vector":"1"}},{"base_weights":[2.4362808E-2,7.8894866E-1,-2.5835622E-2,1.7413362E0,-4.5865726E-1,2.8083196E0,-2.3706896E-2,1.1133603E-2,-2.5018493E-2,-2.3095703E-2,4.750807E0,-2.1363292E-2,3.7688702E-1],"categories":[],"categories_nodes":[],"categories_segments":[],"categories_sizes":[],"default_left":[0,0,0,0,0,0,0,0,0,0,0,0,0],"id":11,"left_children":[1,3,-1,5,7,9,-1,-1,-1,-1,11,-1,-1],"loss_changes":[5.2121674E1,6.282098E1,0E0,7.179843E1,7.761178E-1,1.3092218E2,0E0,0E0,0E0,0E0,1.8796057E2,0E0,0E0],"parents":[2147483647,0,0,1,1,3,3,4,4,5,5,10,10],"right_children":[2,4,-1,6,8,10,-1,-1,-1,-1,12,-1,-1],"split_conditions":[2.6E1,2.6213127E1,-2.5835622E-2,7.463745E1,2.6595808E1,5.4013527E1,-2.3706896E-2,1.1133603E-2,-2.5018493E-2,-2.3095703E-2,5.9655907E1,-2.1363292E-2,3.7688702E-1],"split_indices":[2,3,0,4,3,4,0,0,0,0,6,0,0],"split_type":[0,0,0,0,0,0,0,0,0,0,0,0,0],"sum_hessian":[1.24004135E2,5.119835E1,7.2805786E1,2.8809917E1,2.238843E1,1.9264463E1,9.545455E0,1.0413224E0,2.1347107E1,7.46281E0,1.1801653E1,4.42562E0,7.3760333E0],"tree_param":{"num_deleted":"0","num_feature":"7","num_nodes":"13","size_leaf_vector":"1"}},{"base_weights":[4.1300703E-2,2.0557377E0,-2.5928149E-2,7.403158E0,-4.4696814E-1,4.489421E-1,-1.5609349E-2,1.1133603E-2,-2.479657E-2],"categories":[],"categories_nodes":[],"categories_segments":[],"categories_sizes":[],"default_left":[0,0,0,0,0,0,0,0,0],"id":12,"left_children":[1,3,-1,5,7,-1,-1,-1,-1],"loss_changes":[1.4380856E2,3.7438367E2,0E0,1.10959595E2,7.6062965E-1,0E0,0E0,0E0,0E0],"parents":[2147483647,0,0,1,1,3,3,4,4],"right_children":[2,4,-1,6,8,-1,-1,-1,-1],"split_conditions":[5.5187923E1,3.9E1,-2.5928149E-2,4.1E1,5E0,4.489421E-1,-1.5609349E-2,1.1133603E-2,-2.479657E-2],"split_indices":[4,1,0,0,0,0,0,0,0],"split_type":[0,0,0,0,0,0,0,0,0],"sum_hessian":[1.2556612E2,2.6727272E1,9.8838844E1,7.896694E0,1.8830578E1,6.421488E0,1.4752066E0,1.0413224E0,1.7789257E1],"tree_param":{"num_deleted":"0","num_feature":"7","num_nodes":"9","size_leaf_vector":"1"}},{"base_weights":[3.6086846E-2,-1.3416454E-1,4.1887417E0,2.7583084E-1,-2.6161674E-1,-1.6910689E-2,3.4491524E-1,5.0668645E-1,-2.590153E-2,5.8235292E0,-2.5245902E-1,3.489426E-1,8.009709E-2,7.3413566E-2,-2.5140775E-2],"categories":[],"categories_nodes":[],"categories_segments":[],"categories_sizes":[],"default_left":[0,0,0,0,0,0,0,0,0,0,0,0,0,0,0],"id":13,"left_children":[1,3,5,-1,7,-1,-1,9,-1,11,13,-1,-1,-1,-1],"loss_changes":[8.961417E1,8.928436E1,6.3562103E1,0E0,2.3948494E1,0E0,0E0,1.2494298E2,0E0,7.664383E0,1.2683067E1,0E0,0E0,0E0,0E0],"parents":[2147483647,0,0,1,1,2,2,4,4,7,7,9,9,10,10],"right_children":[2,4,6,-1,8,-1,-1,10,-1,12,14,-1,-1,-1,-1],"split_conditions":[7.97909E0,4.6262126E0,2.3978983E1,2.7583084E-1,6.1582455E1,-1.6910689E-2,3.4491524E-1,6.2787308E1,-2.590153E-2,5.6E1,7.16787E1,3.489426E-1,8.009709E-2,7.3413566E-2,-2.5140775E-2],"split_indices":[5,5,3,0,4,0,0,6,0,1,6,0,0,0,0],"split_type":[0,0,0,0,0,0,0,0,0,0,0,0,0,0,0],"sum_hessian":[1.2495868E2,1.2096694E2,3.9917355E0,1.7355372E0,1.1923141E2,1.822314E0,2.1694214E0,2.959091E1,8.9640495E1,2.8636365E0,2.6727272E1,1.7355372E0,1.1280992E0,2.7768595E0,2.3950413E1],"tree_param":{"num_deleted":"0","num_feature":"7","num_nodes":"15","size_leaf_vector":"1"}},{"base_weights":[3.4581713E-2,-5.038441E-1,9.3494016E-1,-2.5840152E-2,3.5483863E-3,2.5362098E0,-2.5137112E-2,-2.4333432E-2,7.178947E0,4.682432E-1,-1.71875E-2],"categories":[],"categories_nodes":[],"categories_segments":[],"categories_sizes":[],"default_left":[0,0,0,0,0,0,0,0,0,0,0],"id":14,"left_children":[1,3,5,-1,-1,7,-1,-1,9,-1,-1],"loss_changes":[5.9092926E1,6.05196E-1,1.0625922E2,0E0,0E0,3.085976E2,0E0,0E0,1.452355E2,0E0,0E0],"parents":[2147483647,0,0,1,1,2,2,5,5,8,8],"right_children":[2,4,6,-1,-1,8,-1,-1,10,-1,-1],"split_conditions":[2.7100533E1,2.6972515E1,2.6E1,-2.5840152E-2,3.5483863E-3,7.109445E1,-2.5137112E-2,-2.4333432E-2,8.993458E1,4.682432E-1,-1.71875E-2],"split_indices":[3,3,2,0,0,4,0,0,4,0,0],"split_type":[0,0,0,0,0,0,0,0,0,0,0],"sum_hessian":[1.1992562E2,7.532231E1,4.4603306E1,7.376033E1,1.5619835E0,2.073967E1,2.3863636E1,1.3103306E1,7.6363635E0,5.727273E0,1.9090909E0],"tree_param":{"num_deleted":"0","num_feature":"7","num_nodes":"11","size_leaf_vector":"1"}},{"base_weights":[2.9742608E-2,-2.5911672E-2,1.6972944E0,-2.4490345E-2,3.6427135E0,5.572794E0,-2.1970706E-2,-2.0655023E-2,8.602641E0,4.6495208E-1,1.09109305E-1],"categories":[],"categories_nodes":[],"categories_segments":[],"categories_sizes":[],"default_left":[0,0,0,0,0,0,0,0,0,0,0],"id":15,"left_children":[1,-1,3,-1,5,7,-1,-1,9,-1,-1],"loss_changes":[1.1399554E2,0E0,1.3305096E2,0E0,1.3202629E2,2.074003E2,0E0,0E0,1.3278748E1,0E0,0E0],"parents":[2147483647,0,0,2,2,4,4,5,5,8,8],"right_children":[2,-1,4,-1,6,8,-1,-1,10,-1,-1],"split_conditions":[9.002575E1,-2.5911672E-2,2.7076727E1,-2.4490345E-2,2.9988354E1,3.6E1,-2.1970706E-2,-2.0655023E-2,2.7E1,4.6495208E-1,1.09109305E-1],"split_indices":[4,0,3,0,3,2,0,0,1,0,0],"split_type":[0,0,0,0,0,0,0,0,0,0,0],"sum_hessian":[1.2278925E2,9.293802E1,2.985124E1,1.4404959E1,1.5446281E1,1.023967E1,5.2066116E0,3.731405E0,6.5082645E0,5.4669423E0,1.0413224E0],"tree_param":{"num_deleted":"0","num_feature":"7","num_nodes":"11","size_leaf_vector":"1"}},{"base_weights":[-1.1046997E-3,4.575052E-1,-4.6031526E-1,7.2328764E-1,-2.5959646E-2,1.5809716E-1,-2.0943709E-2],"categories":[],"categories_nodes":[],"categories_segments":[],"categories_sizes":[],"default_left":[0,0,0,0,0,0,0],"id":16,"left_children":[1,-1,3,5,-1,-1,-1],"loss_changes":[5.2295685E2,0E0,8.633242E0,1.812857E1,0E0,0E0,0E0],"parents":[2147483647,0,0,2,2,3,3],"right_children":[2,-1,4,6,-1,-1,-1],"split_conditions":[1.5E1,4.575052E-1,1.6E1,4E1,-2.5959646E-2,1.5809716E-1,-2.0943709E-2],"split_indices":[2,0,2,1,0,0,0],"split_type":[0,0,0,0,0,0,0],"sum_hessian":[1.2244215E2,4.946281E0,1.17495865E2,5.0330577E0,1.12462814E2,1.0413224E0,3.9917355E0],"tree_param":{"num_deleted":"0","num_feature":"7","num_nodes":"7","size_leaf_vector":"1"}},{"base_weights":[-6.5589207E-3,-2.317206E-1,3.3176354E-1,-2.5912186E-2,7.2227854E-1,7.949251E-2,4.9102845E0,-2.4614621E-2,1.0114425E0,-1.3360324E-2,3.489426E-1,1.3205561E-1,-2.1970706E-2],"categories":[],"categories_nodes":[],"categories_segments":[],"categories_sizes":[],"default_left":[0,0,0,0,0,0,0,0,0,0,0,0,0],"id":17,"left_children":[1,3,-1,-1,5,7,9,-1,11,-1,-1,-1,-1],"loss_changes":[1.8809004E2,3.361822E1,0E0,0E0,7.635368E1,1.4209547E1,4.231492E1,0E0,2.5068508E1,0E0,0E0,0E0,0E0],"parents":[2147483647,0,0,1,1,4,4,5,5,6,6,8,8],"right_children":[2,4,-1,-1,6,8,10,-1,12,-1,-1,-1,-1],"split_conditions":[3.713165E1,9.015407E1,3.3176354E-1,-2.5912186E-2,2.9988354E1,3.3E1,1.6E1,-2.4614621E-2,7E1,-1.3360324E-2,3.489426E-1,1.3205561E-1,-2.1970706E-2],"split_indices":[3,4,0,0,3,0,2,0,0,0,0,0,0],"split_type":[0,0,0,0,0,0,0,0,0,0,0,0,0],"sum_hessian":[1.23743805E2,1.20619835E2,3.123967E0,9.311157E1,2.7508265E1,2.4731405E1,2.7768595E0,1.5619835E1,9.11157E0,1.0413224E0,1.7355372E0,3.9049587E0,5.2066116E0],"tree_param":{"num_deleted":"0","num_feature":"7","num_nodes":"13","size_leaf_vector":"1"}},{"base_weights":[7.277306E-4,3.2254672E0,-1.9123785E-1,-2.0096155E-2,3.249453E-1,7.4920005E-1,-4.6423638E-1,-2.926053E-2,4.3584905E0,-1.3690306E-1,-2.5860814E-2,-3.901051E-1,1.2315308E0,-1.6616315E-2,3.553619E-1,-4.0791956E-1,8.009709E-2,-2.4509285E-2,3.173076E-3,-1.769437E-2,1.1625463E-1,9.61165E-3,-2.4011688E-2],"categories":[],"categories_nodes":[],"categories_segments":[],"categories_sizes":[],"default_left":[0,0,0,0,0,0,0,0,0,0,0,0,0,0,0,0,0,0,0,0,0,0,0],"id":18,"left_children":[1,3,5,-1,-1,7,9,11,13,15,-1,17,19,-1,-1,21,-1,-1,-1,-1,-1,-1,-1],"loss_changes":[7.794553E1,8.6613525E1,3.0859331E1,0E0,0E0,7.632586E1,1.5372047E0,1.1081506E1,6.448694E1,7.381514E0,0E0,8.879521E-1,1.02295065E1,0E0,0E0,6.629672E-1,0E0,0E0,0E0,0E0,0E0,0E0,0E0],"parents":[2147483647,0,0,1,1,2,2,5,5,6,6,7,7,8,8,9,9,11,11,12,12,15,15],"right_children":[2,4,6,-1,-1,8,10,12,14,16,-1,18,20,-1,-1,22,-1,-1,-1,-1,-1,-1,-1],"split_conditions":[5.421265E0,5.5E1,5.996665E1,-2.0096155E-2,3.249453E-1,1.4541724E2,6.722191E1,1.1405125E2,4.1E1,1.490632E2,-2.5860814E-2,7.2E1,2.4938963E1,-1.6616315E-2,3.553619E-1,5.9722915E0,8.009709E-2,-2.4509285E-2,3.173076E-3,-1.769437E-2,1.1625463E-1,9.61165E-3,-2.4011688E-2],"split_indices":[5,1,4,0,0,6,4,6,1,6,0,1,4,0,0,5,0,0,0,0,0,0,0],"split_type":[0,0,0,0,0,0,0,0,0,0,0,0,0,0,0,0,0,0,0,0,0,0,0],"sum_hessian":[1.2391736E2,6.0743804E0,1.1784298E2,3.2975206E0,2.7768595E0,2.6119835E1,9.1723145E1,2.2301653E1,3.8181818E0,1.3276859E1,7.844628E1,1.7876034E1,4.42562E0,1.7355372E0,2.0826447E0,1.2148761E1,1.1280992E0,1.4578512E1,3.2975206E0,2.0826447E0,2.3429751E0,1.1280992E0,1.1020661E1],"tree_param":{"num_deleted":"0","num_feature":"7","num_nodes":"23","size_leaf_vector":"1"}},{"base_weights":[1.9993803E-2,1.3474156E0,-2.5887609E-2,-3.445449E-1,3.298055E0,-2.473612E-2,4.0327612E-2,4.6379533E-1,-2.3805045E-2],"categories":[],"categories_nodes":[],"categories_segments":[],"categories_sizes":[],"default_left":[0,0,0,0,0,0,0,0,0],"id":19,"left_children":[1,3,-1,5,7,-1,-1,-1,-1],"loss_changes":[8.670653E1,1.1670503E2,0E0,3.7971065E0,3.735087E2,0E0,0E0,0E0,0E0],"parents":[2147483647,0,0,1,1,3,3,4,4],"right_children":[2,4,-1,6,8,-1,-1,-1,-1],"split_conditions":[3.1E1,3.6E1,-2.5887609E-2,3.5E1,4.1E1,-2.473612E-2,4.0327612E-2,4.6379533E-1,-2.3805045E-2],"split_indices":[1,2,0,2,0,0,0,0,0],"split_type":[0,0,0,0,0,0,0,0,0],"sum_hessian":[1.1949174E2,3.401653E1,8.5475204E1,1.8657024E1,1.5359505E1,1.7008265E1,1.6487603E0,5.380165E0,9.979339E0],"tree_param":{"num_deleted":"0","num_feature":"7","num_nodes":"9","size_leaf_vector":"1"}},{"base_weights":[1.7762205E-2,-4.1468334E-1,5.4874716E0,-2.5947964E-2,1.0882978E0,4.2568493E-1,-1.9703174E-2,-2.0551603E-2,2.513026E0,2.2679465E-1,-1.6302653E-2],"categories":[],"categories_nodes":[],"categories_segments":[],"categories_sizes":[],"default_left":[0,0,0,0,0,0,0,0,0,0,0],"id":20,"left_children":[1,3,5,-1,7,-1,-1,-1,9,-1,-1],"loss_changes":[2.928228E2,1.8551216E1,1.6479504E2,0E0,1.7627718E1,0E0,0E0,0E0,2.5163214E1,0E0,0E0],"parents":[2147483647,0,0,1,1,2,2,4,4,8,8],"right_children":[2,4,6,-1,8,-1,-1,-1,10,-1,-1],"split_conditions":[1.9764397E2,1.8226854E2,8.50864E1,-2.5947964E-2,8.002131E1,4.2568493E-1,-1.9703174E-2,-2.0551603E-2,8.50864E1,2.2679465E-1,-1.6302653E-2],"split_indices":[6,6,4,0,4,0,0,0,4,0,0],"split_type":[0,0,0,0,0,0,0,0,0,0,0],"sum_hessian":[1.2183471E2,1.13764465E2,8.070248E0,1.06995865E2,6.768595E0,5.0330577E0,3.0371902E0,3.644628E0,3.123967E0,1.4752066E0,1.6487603E0],"tree_param":{"num_deleted":"0","num_feature":"7","num_nodes":"11","size_leaf_vector":"1"}},{"base_weights":[-1.1008096E-2,-2.5892396E-2,1.1924751E0,-2.4869766E-2,2.97E0,6.4133573E0,-2.3577906E-2,5.709342E-3,3.7622342E-1],"categories":[],"categories_nodes":[],"categories_segments":[],"categories_sizes":[],"default_left":[0,0,0,0,0,0,0,0,0],"id":21,"left_children":[1,-1,3,-1,5,7,-1,-1,-1],"loss_changes":[7.617858E1,0E0,1.126546E2,0E0,2.1848817E2,6.3231506E1,0E0,0E0,0E0],"parents":[2147483647,0,0,2,2,4,4,5,5],"right_children":[2,-1,4,-1,6,8,-1,-1,-1],"split_conditions":[8E1,-2.5892396E-2,4.5E1,-2.4869766E-2,2.691515E1,6.0262876E0,-2.3577906E-2,5.709342E-3,3.7622342E-1],"split_indices":[0,0,2,0,3,5,0,0,0],"split_type":[0,0,0,0,0,0,0,0,0],"sum_hessian":[1.2287604E2,8.686364E1,3.6012398E1,1.8830578E1,1.7181818E1,8.157024E0,9.024794E0,1.3884298E0,6.768595E0],"tree_param":{"num_deleted":"0","num_feature":"7","num_nodes":"9","size_leaf_vector":"1"}},{"base_weights":[1.1557398E-2,-2.5919056E-2,3.6735804E0,-2.242057E-2,3.1194946E-1],"categories":[],"categories_nodes":[],"categories_segments":[],"categories_sizes":[],"default_left":[0,0,0,0,0],"id":22,"left_children":[1,-1,3,-1,-1],"loss_changes":[2.4283475E2,0E0,1.7007048E2,0E0,0E0],"parents":[2147483647,0,0,2,2],"right_children":[2,-1,4,-1,-1],"split_conditions":[1.2E2,-2.5919056E-2,8.389181E1,-2.242057E-2,3.1194946E-1],"split_indices":[1,0,4,0,0],"split_type":[0,0,0,0,0],"sum_hessian":[1.23149536E2,1.0833116E2,1.4818371E1,6.001162E0,8.817209E0],"tree_param":{"num_deleted":"0","num_feature":"7","num_nodes":"5","size_leaf_vector":"1"}},{"base_weights":[-1.0730474E-2,-2.5887197E-2,1.521674E0,-2.5031576E-2,3.2332084E-1],"categories":[],"categories_nodes":[],"categories_segments":[],"categories_sizes":[],"default_left":[0,0,0,0,0],"id":23,"left_children":[1,-1,3,-1,-1],"loss_changes":[9.843319E1,0E0,3.1821283E2,0E0,0E0],"parents":[2147483647,0,0,2,2],"right_children":[2,-1,4,-1,-1],"split_conditions":[7E1,-2.5887197E-2,6.9E1,-2.5031576E-2,3.2332084E-1],"split_indices":[1,0,0,0,0],"split_type":[0,0,0,0,0],"sum_hessian":[1.2467782E2,9.417957E1,3.0498247E1,2.2283482E1,8.214766E0],"tree_param":{"num_deleted":"0","num_feature":"7","num_nodes":"5","size_leaf_vector":"1"}},{"base_weights":[-3.5550244E-2,6.4099526E-1,-2.5794495E-2,-2.5281547E-2,2.149873E0,1.1365349E-1,4.0599947E0,-2.292546E-2,1.0570103E0,-1.4345474E-2,4.59649E0,-1.7438129E-2,1.0980985E-1,7.368939E-2,2.5356132E-1],"categories":[],"categories_nodes":[],"categories_segments":[],"categories_sizes":[],"default_left":[0,0,0,0,0,0,0,0,0,0,0,0,0,0,0],"id":24,"left_children":[1,3,-1,-1,5,7,9,-1,11,-1,13,-1,-1,-1,-1],"loss_changes":[3.991476E1,8.935878E1,0E0,0E0,8.596447E1,6.8451858E0,2.7989914E1,0E0,8.375151E0,0E0,7.704834E0,0E0,0E0,0E0,0E0],"parents":[2147483647,0,0,1,1,4,4,5,5,6,6,8,8,10,10],"right_children":[2,4,-1,-1,6,8,10,-1,12,-1,14,-1,-1,-1,-1],"split_conditions":[7.109445E1,5.996665E1,-2.5794495E-2,-2.5281547E-2,2.7022692E1,2.5097374E1,5.3E1,-2.292546E-2,6E1,-1.4345474E-2,2.3E1,-1.7438129E-2,1.0980985E-1,7.368939E-2,2.5356132E-1],"split_indices":[4,4,0,0,3,3,1,0,1,0,0,0,0,0,0],"split_type":[0,0,0,0,0,0,0,0,0,0,0,0,0,0,0],"sum_hessian":[1.2080779E2,5.0020622E1,7.078717E1,2.8799902E1,2.122072E1,1.0784149E1,1.043657E1,7.03267E0,3.7514794E0,1.1976805E0,9.23889E0,1.989839E0,1.7616403E0,1.7608528E0,7.4780374E0],"tree_param":{"num_deleted":"0","num_feature":"7","num_nodes":"15","size_leaf_vector":"1"}},{"base_weights":[7.442514E-3,5.1518097E0,-2.5918571E-2,-1.6516624E-2,3.0890784E-1],"categories":[],"categories_nodes":[],"categories_segments":[],"categories_sizes":[],"default_left":[0,0,0,0,0],"id":25,"left_children":[1,3,-1,-1,-1],"loss_changes":[3.2582297E2,6.4888916E1,0E0,0E0,0E0],"parents":[2147483647,0,0,1,1],"right_children":[2,4,-1,-1,-1],"split_conditions":[2.0182383E1,2.6E1,-2.5918571E-2,-1.6516624E-2,3.0890784E-1],"split_indices":[4,2,0,0,0],"split_type":[0,0,0,0,0],"sum_hessian":[1.1846574E2,1.0169858E1,1.0829588E2,1.7106607E0,8.459197E0],"tree_param":{"num_deleted":"0","num_feature":"7","num_nodes":"5","size_leaf_vector":"1"}},{"base_weights":[-2.0203508E-4,-2.5002748E-1,2.7995166E-1,-4.9605012E-1,7.473718E-1,-7.283068E-2,-2.5862435E-2,1.6875304E0,-2.3756048E-2,-2.0444745E-2,3.606798E-2,-2.2125857E-2,3.2353945E0,2.5621876E-1,-1.8937452E-2],"categories":[],"categories_nodes":[],"categories_segments":[],"categories_sizes":[],"default_left":[0,0,0,0,0,0,0,0,0,0,0,0,0,0,0],"id":26,"left_children":[1,3,-1,5,7,9,-1,11,-1,-1,-1,-1,13,-1,-1],"loss_changes":[1.6836346E2,2.864337E1,0E0,7.968941E-1,2.7461796E1,1.7898653E0,0E0,4.538702E1,0E0,0E0,0E0,0E0,5.547432E1,0E0,0E0],"parents":[2147483647,0,0,1,1,3,3,4,4,5,5,7,7,12,12],"right_children":[2,4,-1,6,8,10,-1,12,-1,-1,-1,-1,14,-1,-1],"split_conditions":[9.4944824E1,9.079094E1,2.7995166E-1,1.7E1,6.4659133E0,2.806643E1,-2.5862435E-2,2.4847408E1,-2.3756048E-2,-2.0444745E-2,3.606798E-2,-2.2125857E-2,4E1,2.5621876E-1,-1.8937452E-2],"split_indices":[4,4,0,1,5,3,0,3,0,0,0,0,0,0,0],"split_type":[0,0,0,0,0,0,0,0,0,0,0,0,0,0,0],"sum_hessian":[1.18359314E2,1.1421848E2,4.140829E0,9.202249E1,2.2195995E1,4.6010146E0,8.742148E1,1.233181E1,9.864184E0,3.5738647E0,1.02715E0,5.4904294E0,6.8413806E0,4.2186036E0,2.622777E0],"tree_param":{"num_deleted":"0","num_feature":"7","num_nodes":"15","size_leaf_vector":"1"}},{"base_weights":[-2.3411563E-2,-4.9418455E-1,1.1535127E0,-2.584194E-2,-3.706104E-2,3.0231586E0,-2.4814142E-2,-1.9871067E-2,3.5891846E-2,1.0226043E0,5.3094363E0,-2.042151E-2,1.8733022E0,3.062223E-1,6.3668124E-2,-1.5056304E-2,1.2545662E-1],"categories":[],"categories_nodes":[],"categories_segments":[],"categories_sizes":[],"default_left":[0,0,0,0,0,0,0,0,0,0,0,0,0,0,0,0,0],"id":27,"left_children":[1,3,5,-1,7,9,-1,-1,-1,11,13,-1,15,-1,-1,-1,-1],"loss_changes":[6.756365E1,8.8248634E-1,1.08986115E2,0E0,1.6967019E0,6.992871E1,0E0,0E0,0E0,1.297006E1,1.6708862E1,0E0,9.696291E0,0E0,0E0,0E0,0E0],"parents":[2147483647,0,0,1,1,2,2,4,4,5,5,9,9,10,10,12,12],"right_children":[2,4,6,-1,8,10,-1,-1,-1,12,14,-1,16,-1,-1,-1,-1],"split_conditions":[1.193937E2,1.1473991E2,4.1E1,-2.584194E-2,6.7328343E0,6.4659133E0,-2.4814142E-2,-1.9871067E-2,3.5891846E-2,6.011302E0,3.5E1,-2.042151E-2,1.5E1,3.062223E-1,6.3668124E-2,-1.5056304E-2,1.2545662E-1],"split_indices":[6,6,1,0,5,5,0,0,0,5,2,0,1,0,0,0,0],"split_type":[0,0,0,0,0,0,0,0,0,0,0,0,0,0,0,0,0],"sum_hessian":[1.1991308E2,8.606638E1,3.384669E1,8.187802E1,4.188365E0,1.54759655E1,1.8370724E1,3.1555605E0,1.0328045E0,9.025601E0,6.4503636E0,3.558843E0,5.4667587E0,4.936171E0,1.5141926E0,1.3559728E0,4.110786E0],"tree_param":{"num_deleted":"0","num_feature":"7","num_nodes":"17","size_leaf_vector":"1"}},{"base_weights":[-4.8821107E-2,-2.5907556E-2,2.4436505E0,3.0693275E-1,-2.3964712E-2],"categories":[],"categories_nodes":[],"categories_segments":[],"categories_sizes":[],"default_left":[0,0,0,0,0],"id":28,"left_children":[1,-1,3,-1,-1],"loss_changes":[1.4534692E2,0E0,2.156242E2,0E0,0E0],"parents":[2147483647,0,0,2,2],"right_children":[2,-1,4,-1,-1],"split_conditions":[1E2,-2.5907556E-2,2.6E1,3.0693275E-1,-2.3964712E-2],"split_indices":[0,0,2,0,0],"split_type":[0,0,0,0,0],"sum_hessian":[1.22167854E2,1.0347562E2,1.8692244E1,7.769883E0,1.0922361E1],"tree_param":{"num_deleted":"0","num_feature":"7","num_nodes":"5","size_leaf_vector":"1"}},{"base_weights":[-1.5015878E-2,-2.5919518E-2,3.8910842E0,3.0886006E-1,-2.1665273E-2],"categories":[],"categories_nodes":[],"categories_segments":[],"categories_sizes":[],"default_left":[0,0,0,0,0],"id":29,"left_children":[1,-1,3,-1,-1],"loss_changes":[2.4343834E2,0E0,1.4240866E2,0E0,0E0],"parents":[2147483647,0,0,2,2],"right_children":[2,-1,4,-1,-1],"split_conditions":[1.2E2,-2.5919518E-2,8.383626E1,3.0886006E-1,-2.1665273E-2],"split_indices":[1,0,4,0,0],"split_type":[0,0,0,0,0],"sum_hessian":[1.2178375E2,1.08649506E2,1.3134247E1,8.311736E0,4.8225107E0],"tree_param":{"num_deleted":"0","num_feature":"7","num_nodes":"5","size_leaf_vector":"1"}},{"base_weights":[-1.2717112E-2,-2.5886608E-2,1.814787E0,-2.3525266E-2,2.9879377E0,4.399295E0,1.2997936E-1,-1.8609786E-2,2.8444287E-1,6.13009E-2,-2.1250883E-2],"categories":[],"categories_nodes":[],"categories_segments":[],"categories_sizes":[],"default_left":[0,0,0,0,0,0,0,0,0,0,0],"id":30,"left_children":[1,-1,3,-1,5,7,9,-1,-1,-1,-1],"loss_changes":[1.1378164E2,0E0,7.2972244E1,0E0,7.112576E1,7.514595E1,4.722327E0,0E0,0E0,0E0,0E0],"parents":[2147483647,0,0,2,2,4,4,5,5,6,6],"right_children":[2,-1,4,-1,6,8,10,-1,-1,-1,-1],"split_conditions":[1.5020122E2,-2.5886608E-2,5.9E1,-2.3525266E-2,1.9431003E2,6.893876E1,2.008349E2,-1.8609786E-2,2.8444287E-1,6.13009E-2,-2.1250883E-2],"split_indices":[6,0,0,0,6,4,6,0,0,0,0],"split_type":[0,0,0,0,0,0,0,0,0,0,0],"sum_hessian":[1.2126675E2,9.557274E1,2.5694002E1,8.918921E0,1.6775082E1,1.0868521E1,5.906561E0,2.4637632E0,8.4047575E0,1.5790713E0,4.32749E0],"tree_param":{"num_deleted":"0","num_feature":"7","num_nodes":"11","size_leaf_vector":"1"}},{"base_weights":[6.8663647E-3,3.8855195E0,-2.5927443E-2,3.1723556E-1,-2.2010732E-2],"categories":[],"categories_nodes":[],"categories_segments":[],"categories_sizes":[],"default_left":[0,0,0,0,0],"id":31,"left_children":[1,3,-1,-1,-1],"loss_changes":[2.5344946E2,1.6062773E2,0E0,0E0,0E0],"parents":[2147483647,0,0,1,1],"right_children":[2,4,-1,-1,-1],"split_conditions":[3.3106953E1,2.6E1,-2.5927443E-2,3.1723556E-1,-2.2010732E-2],"split_indices":[4,2,0,0,0],"split_type":[0,0,0,0,0],"sum_hessian":[1.22379074E2,1.3837144E1,1.0854193E2,8.524313E0,5.312831E0],"tree_param":{"num_deleted":"0","num_feature":"7","num_nodes":"5","size_leaf_vector":"1"}},{"base_weights":[4.0382974E-2,8.1357896E-1,-2.5800971E-2,-2.5328819E-2,2.6520367E0,-2.2200564E-2,3.720337E0,2.736785E-1,1.1599067E0,1.0172857E-1,-1.9174526E-2],"categories":[],"categories_nodes":[],"categories_segments":[],"categories_sizes":[],"default_left":[0,0,0,0,0,0,0,0,0,0,0],"id":32,"left_children":[1,3,-1,-1,5,-1,7,-1,9,-1,-1],"loss_changes":[5.416581E1,1.2917168E2,0E0,0E0,7.499008E1,0E0,6.813164E1,0E0,1.1596561E1,0E0,0E0],"parents":[2147483647,0,0,1,1,4,4,6,6,8,8],"right_children":[2,4,-1,-1,6,-1,8,-1,10,-1,-1],"split_conditions":[6.9948074E1,5.996665E1,-2.5800971E-2,-2.5328819E-2,5.5E1,-2.2200564E-2,2.7627495E1,2.736785E-1,2.9988354E1,1.0172857E-1,-1.9174526E-2],"split_indices":[4,4,0,0,1,0,3,0,3,0,0],"split_type":[0,0,0,0,0,0,0,0,0,0,0],"sum_hessian":[1.239302E2,5.1668144E1,7.2262054E1,3.0494898E1,2.1173248E1,5.5815883E0,1.55916605E1,8.579302E0,7.0123577E0,4.272711E0,2.739647E0],"tree_param":{"num_deleted":"0","num_feature":"7","num_nodes":"11","size_leaf_vector":"1"}},{"base_weights":[-7.928443E-3,-2.583673E-2,8.019642E-1,4.132837E0,-4.2666125E-1,3.2730493E-1,-2.1409897E-2,4.43354E-2,-2.5409097E-2],"categories":[],"categories_nodes":[],"categories_segments":[],"categories_sizes":[],"default_left":[0,0,0,0,0,0,0,0,0],"id":33,"left_children":[1,-1,3,5,7,-1,-1,-1,-1],"loss_changes":[5.1917995E1,0E0,2.0071916E2,1.4802779E2,4.350207E0,0E0,0E0,0E0,0E0],"parents":[2147483647,0,0,2,2,3,3,4,4],"right_children":[2,-1,4,6,8,-1,-1,-1,-1],"split_conditions":[6E1,-2.583673E-2,2.5E1,1.01E2,2.6E1,3.2730493E-1,-2.1409897E-2,4.43354E-2,-2.5409097E-2],"split_indices":[0,0,2,0,2,0,0,0,0],"split_type":[0,0,0,0,0,0,0,0,0],"sum_hessian":[1.2398496E2,7.636897E1,4.7615993E1,1.2193889E1,3.5422104E1,7.6899066E0,4.503982E0,1.4929115E0,3.392919E1],"tree_param":{"num_deleted":"0","num_feature":"7","num_nodes":"9","size_leaf_vector":"1"}},{"base_weights":[-2.6080428E-2,1.5910542E0,-2.5892306E-2,5.007303E0,-4.4595712E-1,5.821153E0,-1.5473239E-2,9.879142E-3,-2.4755783E-2,3.1185287E-1,5.9543658E-2],"categories":[],"categories_nodes":[],"categories_segments":[],"categories_sizes":[],"default_left":[0,0,0,0,0,0,0,0,0,0,0],"id":34,"left_children":[1,3,-1,5,7,9,-1,-1,-1,-1,-1],"loss_changes":[1.02235664E2,2.1087447E2,0E0,5.061566E1,7.2106504E-1,1.1510437E1,0E0,0E0,0E0,0E0,0E0],"parents":[2147483647,0,0,1,1,3,3,4,4,5,5],"right_children":[2,4,-1,6,8,10,-1,-1,-1,-1,-1],"split_conditions":[5.5187923E1,3.9E1,-2.5892306E-2,1.0082596E2,4.5E1,6.818261E0,-1.5473239E-2,9.879142E-3,-2.4755783E-2,3.1185287E-1,5.9543658E-2],"split_indices":[4,1,0,6,1,5,0,0,0,0,0],"split_type":[0,0,0,0,0,0,0,0,0,0,0],"sum_hessian":[1.2652164E2,2.8981792E1,9.753984E1,1.0281178E1,1.8700613E1,8.834062E0,1.447117E0,1.112852E0,1.758776E1,7.787548E0,1.0465136E0],"tree_param":{"num_deleted":"0","num_feature":"7","num_nodes":"11","size_leaf_vector":"1"}},{"base_weights":[-5.65047E-3,-1.6489741E-1,3.742584E0,2.1538012E-1,-2.705962E-1,2.5818968E-1,-1.4635906E-2,2.26428E-1,-2.5824366E-2,2.1073213E-1,1.1585792E-2,2.103302E-2,-2.4681313E-2],"categories":[],"categories_nodes":[],"categories_segments":[],"categories_sizes":[],"default_left":[0,0,0,0,0,0,0,0,0,0,0,0,0],"id":35,"left_children":[1,3,5,-1,7,-1,-1,9,-1,-1,11,-1,-1],"loss_changes":[7.379136E1,5.7210163E1,3.0406464E1,0E0,1.4386259E1,0E0,0E0,3.365877E1,0E0,0E0,8.129593E0,0E0,0E0],"parents":[2147483647,0,0,1,1,2,2,4,4,7,7,10,10],"right_children":[2,4,6,-1,8,-1,-1,10,-1,-1,12,-1,-1],"split_conditions":[7.97909E0,4.6262126E0,7.458565E1,2.1538012E-1,7.16787E1,2.5818968E-1,-1.4635906E-2,5.510925E0,-2.5824366E-2,2.1073213E-1,4.1E1,2.103302E-2,-2.4681313E-2],"split_indices":[5,5,6,0,6,0,0,5,0,0,0,0,0],"split_type":[0,0,0,0,0,0,0,0,0,0,0,0,0],"sum_hessian":[1.2159147E2,1.1755313E2,4.0383387E0,1.7961911E0,1.1575694E2,2.7796924E0,1.2586461E0,3.8339584E1,7.741736E1,1.0081142E0,3.733147E1,2.0720919E1,1.661055E1],"tree_param":{"num_deleted":"0","num_feature":"7","num_nodes":"13","size_leaf_vector":"1"}},{"base_weights":[-2.8557122E-2,-2.5809651E-2,7.0591766E-1,1.9558512E0,-2.5161816E-2,3.1949313E0,-2.3337519E-2,4.2130523E0,-2.0407805E-2,2.4236107E-1,-1.5826168E-2],"categories":[],"categories_nodes":[],"categories_segments":[],"categories_sizes":[],"default_left":[0,0,0,0,0,0,0,0,0,0,0],"id":36,"left_children":[1,-1,3,5,-1,7,-1,9,-1,-1,-1],"loss_changes":[4.4823772E1,0E0,7.648171E1,7.5836975E1,0E0,6.229767E1,0E0,3.877275E1,0E0,0E0,0E0],"parents":[2147483647,0,0,2,2,3,3,5,5,7,7],"right_children":[2,-1,4,6,-1,8,-1,10,-1,-1,-1],"split_conditions":[2.6972515E1,-2.5809651E-2,2.6E1,2.9937077E1,-2.5161816E-2,6.1E1,-2.3337519E-2,7.2170186E0,-2.0407805E-2,2.4236107E-1,-1.5826168E-2],"split_indices":[3,0,2,3,0,1,0,5,0,0,0],"split_type":[0,0,0,0,0,0,0,0,0,0,0],"sum_hessian":[1.2313403E2,7.4180786E1,4.895325E1,2.3767076E1,2.5186176E1,1.5513591E1,8.253486E0,1.1963723E1,3.5498676E0,1.0432921E1,1.5308017E0],"tree_param":{"num_deleted":"0","num_feature":"7","num_nodes":"11","size_leaf_vector":"1"}},{"base_weights":[-3.3304784E-3,3.077334E-1,-2.5932087E-2],"categories":[],"categories_nodes":[],"categories_segments":[],"categories_sizes":[],"default_left":[0,0,0],"id":37,"left_children":[1,-1,-1],"loss_changes":[3.9628693E2,0E0,0E0],"parents":[2147483647,0,0],"right_children":[2,-1,-1],"split_conditions":[3.2050255E1,3.077334E-1,-2.5932087E-2],"split_indices":[6,0,0],"split_type":[0,0,0],"sum_hessian":[1.228763E2,8.6434145E0,1.1423289E2],"tree_param":{"num_deleted":"0","num_feature":"7","num_nodes":"3","size_leaf_vector":"1"}},{"base_weights":[2.1779513E-2,3.11635E-1,-4.6758008E-1,6.2420124E-1,-2.5925457E-2,-2.05322E-2,1.3281591E-1],"categories":[],"categories_nodes":[],"categories_segments":[],"categories_sizes":[],"default_left":[0,0,0,0,0,0,0],"id":38,"left_children":[1,-1,3,5,-1,-1,-1],"loss_changes":[3.8436237E2,0E0,6.844057E0,1.3035748E1,0E0,0E0,0E0],"parents":[2147483647,0,0,2,2,3,3],"right_children":[2,-1,4,6,-1,-1,-1],"split_conditions":[1.5E1,3.11635E-1,1.6E1,8.389181E1,-2.5925457E-2,-2.05322E-2,1.3281591E-1],"split_indices":[2,0,2,4,0,0,0],"split_type":[0,0,0,0,0,0,0],"sum_hessian":[1.24502205E2,8.235926E0,1.1626628E2,4.680154E0,1.1158613E2,3.6296806E0,1.0504735E0],"tree_param":{"num_deleted":"0","num_feature":"7","num_nodes":"7","size_leaf_vector":"1"}},{"base_weights":[3.723883E-3,-2.1310501E-1,4.5283723E0,-2.5871653E-2,8.17001E-1,-1.501949E-2,3.0238473E-1,-2.4720328E-2,2.993273E0,-2.2116467E-2,3.4306332E-1],"categories":[],"categories_nodes":[],"categories_segments":[],"categories_sizes":[],"default_left":[0,0,0,0,0,0,0,0,0,0,0],"id":39,"left_children":[1,3,5,-1,7,-1,-1,-1,9,-1,-1],"loss_changes":[1.2093963E2,3.73054E1,4.317402E1,0E0,7.916278E1,0E0,0E0,0E0,1.4092667E2,0E0,0E0],"parents":[2147483647,0,0,1,1,2,2,4,4,8,8],"right_children":[2,4,6,-1,8,-1,-1,-1,10,-1,-1],"split_conditions":[3.6512684E1,9.015407E1,8.282904E1,-2.5871653E-2,6.4996047E0,-1.501949E-2,3.0238473E-1,-2.4720328E-2,3.1E1,-2.2116467E-2,3.4306332E-1],"split_indices":[3,4,4,0,5,0,0,0,1,0,0],"split_type":[0,0,0,0,0,0,0,0,0,0,0],"sum_hessian":[1.2128898E2,1.16651726E2,4.637249E0,9.043258E1,2.6219145E1,1.3018744E0,3.3353746E0,1.6842676E1,9.376469E0,5.434828E0,3.941641E0],"tree_param":{"num_deleted":"0","num_feature":"7","num_nodes":"11","size_leaf_vector":"1"}},{"base_weights":[-1.3824593E-2,1.0041207E0,-4.4678533E-1,1.9490719E-1,4.1528697E0,1.01442695E-1,-2.52541E-2,-3.2009026E-1,1.4844152E0,2.9896662E-1,-1.7656973E-2,-2.4613556E-2,1.6250025E-1,-6.089975E-2,3.101604E0,-2.139734E-2,8.148309E-2,3.4785256E-2,-2.0253042E-2,-1.6202098E-2,2.6604554E-1],"categories":[],"categories_nodes":[],"categories_segments":[],"categories_sizes":[],"default_left":[0,0,0,0,0,0,0,0,0,0,0,0,0,0,0,0,0,0,0,0,0],"id":40,"left_children":[1,3,5,7,9,-1,-1,11,13,-1,-1,-1,15,17,19,-1,-1,-1,-1,-1,-1],"loss_changes":[5.360893E1,9.1686905E1,1.3337851E1,2.0350628E1,6.278887E1,0E0,0E0,1.9254725E0,2.1978014E1,0E0,0E0,0E0,6.408102E0,1.6981568E0,3.426038E1,0E0,0E0,0E0,0E0,0E0,0E0],"parents":[2147483647,0,0,1,1,2,2,3,3,4,4,7,7,8,8,12,12,13,13,14,14],"right_children":[2,4,6,8,10,-1,-1,12,14,-1,-1,-1,16,18,20,-1,-1,-1,-1,-1,-1],"split_conditions":[6.138598E1,1.4541724E2,5.4983406E0,1.0059787E2,4.1E1,1.01442695E-1,-2.52541E-2,9.126057E1,6.4E1,2.9896662E-1,-1.7656973E-2,-2.4613556E-2,6.2E1,2.2E1,2.4938963E1,-2.139734E-2,8.148309E-2,3.4785256E-2,-2.0253042E-2,-1.6202098E-2,2.6604554E-1],"split_indices":[4,6,5,6,0,0,0,6,1,0,0,0,1,0,4,0,0,0,0,0,0],"split_type":[0,0,0,0,0,0,0,0,0,0,0,0,0,0,0,0,0,0,0,0,0],"sum_hessian":[1.1961864E2,3.5301395E1,8.431724E1,2.8928745E1,6.372651E0,1.1621671E0,8.3155075E1,2.1209837E1,7.7189083E0,4.301938E0,2.0707126E0,1.5617643E1,5.5921936E0,4.4392743E0,3.2796342E0,4.492529E0,1.0996648E0,1.0686026E0,3.3706717E0,1.6251296E0,1.6545047E0],"tree_param":{"num_deleted":"0","num_feature":"7","num_nodes":"21","size_leaf_vector":"1"}},{"base_weights":[1.2124233E-2,1.1945466E0,-2.5855193E-2,3.9274292E0,-4.6235022E-1,4.645082E0,-1.7558232E-2,6.4746845E-3,-2.5057519E-2,-1.6114099E-2,2.6978728E-1],"categories":[],"categories_nodes":[],"categories_segments":[],"categories_sizes":[],"default_left":[0,0,0,0,0,0,0,0,0,0,0],"id":41,"left_children":[1,3,-1,5,7,9,-1,-1,-1,-1,-1],"loss_changes":[7.82291E1,1.768256E2,0E0,4.6748016E1,6.3798237E-1,4.8920258E1,0E0,0E0,0E0,0E0,0E0],"parents":[2147483647,0,0,1,1,3,3,4,4,5,5],"right_children":[2,4,-1,6,8,10,-1,-1,-1,-1,-1],"split_conditions":[3.1E1,2.480625E1,-2.5855193E-2,4.1E1,2.512529E1,1.7916523E1,-1.7558232E-2,6.4746845E-3,-2.5057519E-2,-1.6114099E-2,2.6978728E-1],"split_indices":[1,3,0,0,3,3,0,0,0,0,0],"split_type":[0,0,0,0,0,0,0,0,0,0,0],"sum_hessian":[1.2302522E2,3.7649673E1,8.537555E1,1.3693419E1,2.3956255E1,1.1653166E1,2.0402536E0,1.3300899E0,2.2626163E1,1.6047467E0,1.004842E1],"tree_param":{"num_deleted":"0","num_feature":"7","num_nodes":"11","size_leaf_vector":"1"}},{"base_weights":[2.2972379E-2,-4.2178485E-1,4.617732E0,-2.5910234E-2,7.972433E-1,-1.9000553E-2,3.1270942E-1,-2.2883444E-1,1.7783151E0,-1.9926455E-2,1.183652E-2,2.175063E0,1.1123646E-2,1.3202818E-1,3.243309E-2],"categories":[],"categories_nodes":[],"categories_segments":[],"categories_sizes":[],"default_left":[0,0,0,0,0,0,0,0,0,0,0,0,0,0,0],"id":42,"left_children":[1,3,5,-1,7,-1,-1,9,11,-1,-1,13,-1,-1,-1],"loss_changes":[2.5413365E2,1.3745634E1,9.213446E1,0E0,9.173106E0,0E0,0E0,5.0061834E-1,2.3344355E0,0E0,0E0,7.9117775E-1,0E0,0E0,0E0],"parents":[2147483647,0,0,1,1,2,2,4,4,7,7,8,8,11,11],"right_children":[2,4,6,-1,8,-1,-1,10,12,-1,-1,14,-1,-1,-1],"split_conditions":[2.008349E2,1.8226854E2,5.9E1,-2.5910234E-2,3.6E1,-1.9000553E-2,3.1270942E-1,3.4E1,4.4E1,-1.9926455E-2,1.183652E-2,6.3581867E0,1.1123646E-2,1.3202818E-1,3.243309E-2],"split_indices":[6,6,0,0,2,0,0,2,2,0,0,5,0,0,0],"split_type":[0,0,0,0,0,0,0,0,0,0,0,0,0,0,0],"sum_hessian":[1.22405655E2,1.1243092E2,9.9747305E0,1.0472272E2,7.708206E0,2.6498535E0,7.324877E0,4.1424623E0,3.5657442E0,3.1414256E0,1.0010365E0,2.524091E0,1.0416533E0,1.3748734E0,1.1492175E0],"tree_param":{"num_deleted":"0","num_feature":"7","num_nodes":"15","size_leaf_vector":"1"}},{"base_weights":[-1.6029123E-2,1.6231619E0,-2.5898987E-2,-2.4553513E-2,3.9184482E0,3.3518645E-1,-2.2136671E-2],"categories":[],"categories_nodes":[],"categories_segments":[],"categories_sizes":[],"default_left":[0,0,0,0,0,0,0],"id":43,"left_children":[1,3,-1,-1,5,-1,-1],"loss_changes":[1.0370892E2,1.453296E2,0E0,0E0,1.7643253E2,0E0,0E0],"parents":[2147483647,0,0,1,1,4,4],"right_children":[2,4,-1,-1,6,-1,-1],"split_conditions":[6.0469383E1,6.9E1,-2.5898987E-2,-2.4553513E-2,2.7022692E1,3.3518645E-1,-2.2136671E-2],"split_indices":[6,0,0,0,3,0,0],"split_type":[0,0,0,0,0,0,0],"sum_hessian":[1.2402313E2,2.8551252E1,9.547188E1,1.5270945E1,1.3280307E1,7.776614E0,5.5036926E0],"tree_param":{"num_deleted":"0","num_feature":"7","num_nodes":"7","size_leaf_vector":"1"}},{"base_weights":[-2.7684223E-2,-2.5886614E-2,2.9838557E0,-2.2265855E-2,2.3374932E-1],"categories":[],"categories_nodes":[],"categories_segments":[],"categories_sizes":[],"default_left":[0,0,0,0,0],"id":44,"left_children":[1,-1,3,-1,-1],"loss_changes":[1.8696918E2,0E0,1.04910995E2,0E0,0E0],"parents":[2147483647,0,0,2,2],"right_children":[2,-1,4,-1,-1],"split_conditions":[1.95E2,-2.5886614E-2,8.389181E1,-2.2265855E-2,2.3374932E-1],"split_indices":[2,0,4,0,0],"split_type":[0,0,0,0,0],"sum_hessian":[1.2464333E2,1.0791166E2,1.673167E1,5.7694345E0,1.0962235E1],"tree_param":{"num_deleted":"0","num_feature":"7","num_nodes":"5","size_leaf_vector":"1"}},{"base_weights":[-4.0215727E-2,-2.5843704E-2,1.2786312E0,-2.4972087E-2,2.3900414E-1],"categories":[],"categories_nodes":[],"categories_segments":[],"categories_sizes":[],"default_left":[0,0,0,0,0],"id":45,"left_children":[1,-1,3,-1,-1],"loss_changes":[7.782931E1,0E0,2.0706754E2,0E0,0E0],"parents":[2147483647,0,0,2,2],"right_children":[2,-1,4,-1,-1],"split_conditions":[7E1,-2.5843704E-2,5.9E1,-2.4972087E-2,2.3900414E-1],"split_indices":[1,0,0,0,0],"split_type":[0,0,0,0,0],"sum_hessian":[1.2175468E2,8.987874E1,3.1875933E1,2.1709162E1,1.0166773E1],"tree_param":{"num_deleted":"0","num_feature":"7","num_nodes":"5","size_leaf_vector":"1"}},{"base_weights":[5.08355E-3,7.4384505E-1,-2.576691E-2,-2.518559E-2,2.0757174E0,-2.3416458E-2,3.4647954E0,4.362502E0,-1.9528126E-2,-1.4862007E-2,2.4510379E-1],"categories":[],"categories_nodes":[],"categories_segments":[],"categories_sizes":[],"default_left":[0,0,0,0,0,0,0,0,0,0,0],"id":46,"left_children":[1,3,-1,-1,5,-1,7,9,-1,-1,-1],"loss_changes":[4.718665E1,8.532563E1,0E0,0E0,8.900699E1,0E0,5.7472443E1,3.452568E1,0E0,0E0,0E0],"parents":[2147483647,0,0,1,1,4,4,6,6,7,7],"right_children":[2,4,-1,-1,6,-1,8,10,-1,-1,-1],"split_conditions":[7.48985E1,5.9655907E1,-2.576691E-2,-2.518559E-2,2.5097374E1,-2.3416458E-2,7.109445E1,5.5E1,-1.9528126E-2,-1.4862007E-2,2.4510379E-1],"split_indices":[6,6,0,0,3,0,4,1,0,0,0],"split_type":[0,0,0,0,0,0,0,0,0,0,0],"sum_hessian":[1.2073543E2,4.972264E1,7.101279E1,2.5995045E1,2.3727598E1,8.614076E0,1.51135235E1,1.2152348E1,2.9611757E0,1.3077528E0,1.0844595E1],"tree_param":{"num_deleted":"0","num_feature":"7","num_nodes":"11","size_leaf_vector":"1"}},{"base_weights":[1.7821833E-2,4.108112E0,-2.5893256E-2,-1.6389651E-2,2.352397E-1],"categories":[],"categories_nodes":[],"categories_segments":[],"categories_sizes":[],"default_left":[0,0,0,0,0],"id":47,"left_children":[1,3,-1,-1,-1],"loss_changes":[2.7843362E2,4.0489258E1,0E0,0E0,0E0],"parents":[2147483647,0,0,1,1],"right_children":[2,4,-1,-1,-1],"split_conditions":[2.0182383E1,2.6E1,-2.5893256E-2,-1.6389651E-2,2.352397E-1],"split_indices":[4,2,0,0,0],"split_type":[0,0,0,0,0],"sum_hessian":[1.25103E2,1.3714642E1,1.1138836E2,1.6794869E0,1.2035154E1],"tree_param":{"num_deleted":"0","num_feature":"7","num_nodes":"5","size_leaf_vector":"1"}},{"base_weights":[1.052871E-2,-2.296732E-1,2.3478292E-1,-4.9532115E-1,7.33512E-1,-2.5831005E-2,-4.025912E-2,-2.4723643E-2,3.3130064E0,-1.9709652E-2,3.2307617E-2,2.3704708E-1,-1.8213995E-2],"categories":[],"categories_nodes":[],"categories_segments":[],"categories_sizes":[],"default_left":[0,0,0,0,0,0,0,0,0,0,0,0,0],"id":48,"left_children":[1,3,-1,5,7,-1,9,-1,11,-1,-1,-1,-1],"loss_changes":[1.3882019E2,3.0397213E1,0E0,8.767357E-1,8.329286E1,0E0,1.5240737E0,0E0,4.606504E1,0E0,0E0,0E0,0E0],"parents":[2147483647,0,0,1,1,3,3,4,4,6,6,8,8],"right_children":[2,4,-1,6,8,-1,10,-1,12,-1,-1,-1,-1],"split_conditions":[9.5113205E1,9.070937E1,2.3478292E-1,8.993458E1,1.2956506E2,-2.5831005E-2,1.1405125E2,-2.4723643E-2,3.6E1,-1.9709652E-2,3.2307617E-2,2.3704708E-1,-1.8213995E-2],"split_indices":[4,4,0,4,6,0,6,0,2,0,0,0,0],"split_type":[0,0,0,0,0,0,0,0,0,0,0,0,0],"sum_hessian":[1.2139606E2,1.1638033E2,5.015725E0,9.160208E1,2.4778248E1,8.737716E1,4.2249217E0,1.7334402E1,7.4438467E0,3.068455E0,1.1564666E0,5.153449E0,2.2903972E0],"tree_param":{"num_deleted":"0","num_feature":"7","num_nodes":"13","size_leaf_vector":"1"}},{"base_weights":[-1.7642993E-2,-5.0478625E-1,1.1240125E0,-2.5806392E-2,-2.115905E-1,-2.499171E-2,3.4742193E0,-1.9391218E-2,1.1508232E-2,2.3113914E-1,-2.0163901E-2],"categories":[],"categories_nodes":[],"categories_segments":[],"categories_sizes":[],"default_left":[0,0,0,0,0,0,0,0,0,0,0],"id":49,"left_children":[1,3,5,-1,7,-1,9,-1,-1,-1,-1],"loss_changes":[6.806611E1,1.7596817E-1,1.414494E2,0E0,4.6985453E-1,0E0,6.9044174E1,0E0,0E0,0E0,0E0],"parents":[2147483647,0,0,1,1,2,2,4,4,6,6],"right_children":[2,4,6,-1,8,-1,10,-1,-1,-1,-1],"split_conditions":[1.193937E2,1.1473991E2,8E1,-2.5806392E-2,4E1,-2.499171E-2,4.1E1,-1.9391218E-2,1.1508232E-2,2.3113914E-1,-2.0163901E-2],"split_indices":[6,6,0,0,0,0,1,0,0,0,0],"split_type":[0,0,0,0,0,0,0,0,0,0,0],"sum_hessian":[1.203679E2,8.475912E1,3.5608784E1,8.087048E1,3.8886352E0,2.1524214E1,1.4084569E1,2.866969E0,1.0216662E0,1.0717656E1,3.3669126E0],"tree_param":{"num_deleted":"0","num_feature":"7","num_nodes":"11","size_leaf_vector":"1"}},{"base_weights":[1.4476719E-3,6.256092E-1,-2.5739256E-2,-2.5398571E-2,2.3355145E0,3.9531226E0,-2.325645E-2,-1.9112486E-2,2.5010142E-1],"categories":[],"categories_nodes":[],"categories_segments":[],"categories_sizes":[],"default_left":[0,0,0,0,0,0,0,0,0],"id":50,"left_children":[1,3,-1,-1,5,7,-1,-1,-1],"loss_changes":[3.9806454E1,1.0958349E2,0E0,0E0,1.0364904E2,6.7169235E1,0E0,0E0,0E0],"parents":[2147483647,0,0,1,1,4,4,5,5],"right_children":[2,4,-1,-1,6,8,-1,-1,-1],"split_conditions":[2.6E1,7.463745E1,-2.5739256E-2,-2.5398571E-2,8.50864E1,6.0469383E1,-2.325645E-2,-1.9112486E-2,2.5010142E-1],"split_indices":[2,4,0,0,4,6,0,0,0],"split_type":[0,0,0,0,0,0,0,0,0],"sum_hessian":[1.2154142E2,5.4923363E1,6.661806E1,3.345038E1,2.1472984E1,1.3350461E1,8.122523E0,2.724604E0,1.0625856E1],"tree_param":{"num_deleted":"0","num_feature":"7","num_nodes":"9","size_leaf_vector":"1"}},{"base_weights":[-2.9665923E-2,-2.5880504E-2,3.0477288E0,2.3399921E-1,-2.1973846E-2],"categories":[],"categories_nodes":[],"categories_segments":[],"categories_sizes":[],"default_left":[0,0,0,0,0],"id":51,"left_children":[1,-1,3,-1,-1],"loss_changes":[1.8495186E2,0E0,9.801369E1,0E0,0E0],"parents":[2147483647,0,0,2,2],"right_children":[2,-1,4,-1,-1],"split_conditions":[1.95E2,-2.5880504E-2,7.458565E1,2.3399921E-1,-2.1973846E-2],"split_indices":[2,0,6,0,0],"split_type":[0,0,0,0,0],"sum_hessian":[1.21119545E2,1.0526137E2,1.5858181E1,1.0569074E1,5.2891073E0],"tree_param":{"num_deleted":"0","num_feature":"7","num_nodes":"5","size_leaf_vector":"1"}},{"base_weights":[-2.1041587E-2,-2.5843147E-2,1.597631E0,-2.3402378E-2,2.5121942E0,3.438445E0,-2.1500034E-2,-1.832439E-2,4.154787E0,2.2197631E-1,4.857139E-2],"categories":[],"categories_nodes":[],"categories_segments":[],"categories_sizes":[],"default_left":[0,0,0,0,0,0,0,0,0,0,0],"id":52,"left_children":[1,-1,3,-1,5,7,-1,-1,9,-1,-1],"loss_changes":[9.7231766E1,0E0,5.485031E1,0E0,5.557293E1,4.2974213E1,0E0,0E0,7.3617096E0,0E0,0E0],"parents":[2147483647,0,0,2,2,4,4,5,5,8,8],"right_children":[2,-1,4,-1,6,8,-1,-1,10,-1,-1],"split_conditions":[1.5020122E2,-2.5843147E-2,5.9E1,-2.3402378E-2,2.008349E2,6.9948074E1,-2.1500034E-2,-1.832439E-2,9.1E1,2.2197631E-1,4.857139E-2],"split_indices":[6,0,0,0,6,4,0,0,0,0,0],"split_type":[0,0,0,0,0,0,0,0,0,0,0],"sum_hessian":[1.1912127E2,9.170995E1,2.7411314E1,8.5616865E0,1.8849627E1,1.4208039E1,4.641588E0,2.3284733E0,1.1879565E1,1.0542019E1,1.3375472E0],"tree_param":{"num_deleted":"0","num_feature":"7","num_nodes":"11","size_leaf_vector":"1"}},{"base_weights":[2.7612608E-2,3.33206E0,-5.081657E-1,2.4780953E-1,-2.177943E-2,8.718106E-3,-2.587913E-2],"categories":[],"categories_nodes":[],"categories_segments":[],"categories_sizes":[],"default_left":[0,0,0,0,0,0,0],"id":53,"left_children":[1,3,5,-1,-1,-1,-1],"loss_changes":[2.1469821E2,1.0568164E2,7.612152E-1,0E0,0E0,0E0,0E0],"parents":[2147483647,0,0,1,1,2,2],"right_children":[2,4,6,-1,-1,-1,-1],"split_conditions":[2.4938963E1,5.9828544E0,3.5290066E1,2.4780953E-1,-2.177943E-2,8.718106E-3,-2.587913E-2],"split_indices":[4,5,4,0,0,0,0],"split_type":[0,0,0,0,0,0,0],"sum_hessian":[1.19311134E2,1.5917823E1,1.0339331E2,1.0902565E1,5.015258E0,1.1687362E0,1.0222457E2],"tree_param":{"num_deleted":"0","num_feature":"7","num_nodes":"7","size_leaf_vector":"1"}},{"base_weights":[2.7941827E-2,1.9243015E0,-2.5883595E-2,-2.4427537E-2,4.5873384E0,5.080167E0,-1.4023825E-2,1.0804466E-2,2.7651027E-1],"categories":[],"categories_nodes":[],"categories_segments":[],"categories_sizes":[],"default_left":[0,0,0,0,0,0,0,0,0],"id":54,"left_children":[1,3,-1,-1,5,7,-1,-1,-1],"loss_changes":[1.2737224E2,1.7895544E2,0E0,0E0,3.3018402E1,2.5097443E1,0E0,0E0,0E0],"parents":[2147483647,0,0,1,1,4,4,5,5],"right_children":[2,4,-1,-1,6,8,-1,-1,-1],"split_conditions":[5.4961212E1,5.5E1,-2.5883595E-2,-2.4427537E-2,6.9948074E1,6.0242188E1,-1.4023825E-2,1.0804466E-2,2.7651027E-1],"split_indices":[6,1,0,0,4,4,0,0,0],"split_type":[0,0,0,0,0,0,0,0,0],"sum_hessian":[1.21140274E2,2.650197E1,9.4638306E1,1.4332505E1,1.2169465E1,1.1011057E1,1.1584077E0,1.0578482E0,9.953209E0],"tree_param":{"num_deleted":"0","num_feature":"7","num_nodes":"9","size_leaf_vector":"1"}},{"base_weights":[6.619193E-3,-2.5788223E-2,7.5822437E-1,3.0965395E0,-2.5366697E-2,2.4870305E-1,-2.2593373E-2],"categories":[],"categories_nodes":[],"categories_segments":[],"categories_sizes":[],"default_left":[0,0,0,0,0,0,0],"id":55,"left_children":[1,-1,3,5,-1,-1,-1],"loss_changes":[4.9508053E1,0E0,1.5456541E2,1.2413985E2,0E0,0E0,0E0],"parents":[2147483647,0,0,2,2,3,3],"right_children":[2,-1,4,6,-1,-1,-1],"split_conditions":[6E1,-2.5788223E-2,2.6E1,1E2,-2.5366697E-2,2.4870305E-1,-2.2593373E-2],"split_indices":[0,0,2,0,0,0,0],"split_type":[0,0,0,0,0,0,0],"sum_hessian":[1.2409857E2,7.3398575E1,5.0699993E1,1.7296062E1,3.340393E1,1.1048397E1,6.247665E0],"tree_param":{"num_deleted":"0","num_feature":"7","num_nodes":"7","size_leaf_vector":"1"}},{"base_weights":[1.5350595E-2,1.5820476E0,-2.5843019E-2,4.006679E0,-4.383658E-1,4.522558E0,-1.5748627E-2,8.316632E-3,-2.458128E-2,6.012675E-2,2.354871E-1],"categories":[],"categories_nodes":[],"categories_segments":[],"categories_sizes":[],"default_left":[0,0,0,0,0,0,0,0,0,0,0],"id":56,"left_children":[1,3,-1,5,7,9,-1,-1,-1,-1,-1],"loss_changes":[1.03379875E2,1.5575269E2,0E0,3.349997E1,6.630492E-1,2.3643494E0,0E0,0E0,0E0,0E0,0E0],"parents":[2147483647,0,0,1,1,3,3,4,4,5,5],"right_children":[2,4,-1,6,8,10,-1,-1,-1,-1,-1],"split_conditions":[5.5187923E1,3.9E1,-2.5843019E-2,6.8348083E0,4.6E1,2.7313171E1,-1.5748627E-2,8.316632E-3,-2.458128E-2,6.012675E-2,2.354871E-1],"split_indices":[4,1,0,5,1,3,0,0,0,0,0],"split_type":[0,0,0,0,0,0,0,0,0,0,0],"sum_hessian":[1.2200376E2,3.0435781E1,9.1567986E1,1.3387175E1,1.7048607E1,1.1918023E1,1.4691517E0,1.2081807E0,1.5840427E1,1.0323254E0,1.0885697E1],"tree_param":{"num_deleted":"0","num_feature":"7","num_nodes":"11","size_leaf_vector":"1"}},{"base_weights":[-4.3878365E-2,8.396879E-1,-2.5810316E-2,1.8913331E0,-4.4771224E-1,3.6229167E0,-2.3754014E-2,1.0017104E-2,-2.4792269E-2,4.775428E0,-1.962873E-2,1.0058655E-2,2.6365417E-1],"categories":[],"categories_nodes":[],"categories_segments":[],"categories_sizes":[],"default_left":[0,0,0,0,0,0,0,0,0,0,0,0,0],"id":57,"left_children":[1,3,-1,5,7,9,-1,-1,-1,11,-1,-1,-1],"loss_changes":[5.1308304E1,5.8856018E1,0E0,9.913801E1,7.254591E-1,6.594473E1,0E0,0E0,0E0,2.3599152E1,0E0,0E0,0E0],"parents":[2147483647,0,0,1,1,3,3,4,4,5,5,9,9],"right_children":[2,4,-1,6,8,10,-1,-1,-1,12,-1,-1,-1],"split_conditions":[6.498743E1,5.9E1,-2.5810316E-2,2.6E1,4.9318905E0,4.1E1,-2.3754014E-2,1.0017104E-2,-2.4792269E-2,4.0124275E1,-1.962873E-2,1.0058655E-2,2.6365417E-1],"split_indices":[4,1,0,2,5,0,0,0,0,4,0,0,0],"split_type":[0,0,0,0,0,0,0,0,0,0,0,0,0],"sum_hessian":[1.2090468E2,4.1846405E1,7.905827E1,2.2773878E1,1.9072527E1,1.2844301E1,9.929578E0,1.1000078E0,1.7972519E1,9.83286E0,3.011441E0,1.1025839E0,8.730276E0],"tree_param":{"num_deleted":"0","num_feature":"7","num_nodes":"13","size_leaf_vector":"1"}},{"base_weights":[8.1325765E-4,1.4530046E0,-2.5847381E-2,2.5079725E0,-2.4006352E-2,-2.2219567E-2,3.6147966E0,-1.6809234E-2,4.1433477E0,2.305936E-1,-1.4556087E-2],"categories":[],"categories_nodes":[],"categories_segments":[],"categories_sizes":[],"default_left":[0,0,0,0,0,0,0,0,0,0,0],"id":58,"left_children":[1,3,-1,5,-1,-1,7,-1,9,-1,-1],"loss_changes":[9.299311E1,6.749749E1,0E0,7.085159E1,0E0,0E0,3.3807358E1,0E0,2.9942612E1,0E0,0E0],"parents":[2147483647,0,0,1,1,3,3,6,6,8,8],"right_children":[2,4,-1,6,-1,-1,8,-1,10,-1,-1],"split_conditions":[6.0469383E1,2.6E1,-2.5847381E-2,2.691515E1,-2.4006352E-2,-2.2219567E-2,6.1766443E0,-1.6809234E-2,7.2170186E0,2.305936E-1,-1.4556087E-2],"split_indices":[6,2,0,3,0,0,5,0,5,0,0],"split_type":[0,0,0,0,0,0,0,0,0,0,0],"sum_hessian":[1.2168051E2,3.1506432E1,9.017408E1,2.0190506E1,1.1315926E1,5.6685653E0,1.452194E1,1.7564238E0,1.2765516E1,1.1509477E1,1.2560399E0],"tree_param":{"num_deleted":"0","num_feature":"7","num_nodes":"11","size_leaf_vector":"1"}},{"base_weights":[-2.082577E-3,2.3602572E-1,-2.5891198E-2],"categories":[],"categories_nodes":[],"categories_segments":[],"categories_sizes":[],"default_left":[0,0,0],"id":59,"left_children":[1,-1,-1],"loss_changes":[2.981211E2,0E0,0E0],"parents":[2147483647,0,0],"right_children":[2,-1,-1],"split_conditions":[3.2050255E1,2.3602572E-1,-2.5891198E-2],"split_indices":[6,0,0],"split_type":[0,0,0],"sum_hessian":[1.2039596E2,1.1050909E1,1.0934505E2],"tree_param":{"num_deleted":"0","num_feature":"7","num_nodes":"3","size_leaf_vector":"1"}},{"base_weights":[2.6853625E-2,-2.5827795E-2,1.331025E0,4.9161983E-1,2.2935045E-1,1.2907317E0,-2.4789816E-1,2.1549377E0,-1.3241178E-1,2.4894647E-1,-2.3864849E-2,1.7290813E-1,-1.9570876E-2,-2.131369E-2,3.6483377E-2,5.0556775E-2,-1.9429648E-2],"categories":[],"categories_nodes":[],"categories_segments":[],"categories_sizes":[],"default_left":[0,0,0,0,0,0,0,0,0,0,0,0,0,0,0,0,0],"id":60,"left_children":[1,-1,3,5,-1,7,9,11,13,15,-1,-1,-1,-1,-1,-1,-1],"loss_changes":[8.736252E1,0E0,9.682174E1,1.8013702E1,0E0,1.8182295E1,1.986779E0,3.1590363E1,1.9425051E0,3.2278323E0,0E0,0E0,0E0,0E0,0E0,0E0,0E0],"parents":[2147483647,0,0,2,2,3,3,5,5,6,6,7,7,8,8,9,9],"right_children":[2,-1,4,6,-1,8,10,12,14,16,-1,-1,-1,-1,-1,-1,-1],"split_conditions":[8.993458E1,-2.5827795E-2,6.995844E0,2.4E1,2.2935045E-1,3.4E1,3.1E1,1.2015938E2,2.2E1,2.5E1,-2.3864849E-2,1.7290813E-1,-1.9570876E-2,-2.131369E-2,3.6483377E-2,5.0556775E-2,-1.9429648E-2],"split_indices":[4,0,5,1,0,0,1,6,1,0,0,0,0,0,0,0,0],"split_type":[0,0,0,0,0,0,0,0,0,0,0,0,0,0,0,0,0],"sum_hessian":[1.21301506E2,8.605067E1,3.525084E1,2.8940784E1,6.3100553E0,1.3551679E1,1.5389106E1,8.111653E0,5.440025E0,4.834047E0,1.0555059E1,5.128701E0,2.9829526E0,4.4340816E0,1.0059432E0,1.934875E0,2.8991718E0],"tree_param":{"num_deleted":"0","num_feature":"7","num_nodes":"17","size_leaf_vector":"1"}},{"base_weights":[1.1425848E-2,-2.1866451E-1,3.9680705E0,-2.5830165E-2,6.896239E-1,-1.3587445E-2,2.3977597E-1,-2.47455E-2,2.5246072E0,2.540018E-1,-2.200107E-2],"categories":[],"categories_nodes":[],"categories_segments":[],"categories_sizes":[],"default_left":[0,0,0,0,0,0,0,0,0,0,0],"id":61,"left_children":[1,3,5,-1,7,-1,-1,-1,9,-1,-1],"loss_changes":[1.12140816E2,3.1871181E1,2.5051888E1,0E0,6.4703804E1,0E0,0E0,0E0,9.023829E1,0E0,0E0],"parents":[2147483647,0,0,1,1,2,2,4,4,8,8],"right_children":[2,4,6,-1,8,-1,-1,-1,10,-1,-1],"split_conditions":[3.6512684E1,9.015407E1,8.236208E1,-2.5830165E-2,3.1E1,-1.3587445E-2,2.3977597E-1,-2.47455E-2,7.1E1,2.540018E-1,-2.200107E-2],"split_indices":[3,4,4,0,1,0,0,0,1,0,0],"split_type":[0,0,0,0,0,0,0,0,0,0,0],"sum_hessian":[1.2122636E2,1.1545694E2,5.7694206E0,8.7263725E1,2.8193209E1,1.0517699E0,4.7176504E0,1.7577028E1,1.0616179E1,5.318355E0,5.2978244E0],"tree_param":{"num_deleted":"0","num_feature":"7","num_nodes":"11","size_leaf_vector":"1"}},{"base_weights":[-1.5260801E-2,2.4090967E0,-2.2111155E-1,1.9547535E-1,2.4984808E-1,6.3190794E-1,-4.8249248E-1,-2.0700034E-2,6.4887606E-2,-5.1989347E-2,2.2593968E0,-2.519843E-1,-2.5781319E-2,-2.3897756E-2,4.5437127E-1,-2.0627985E-2,2.3332767E-1,-2.3848398E-2,4.1697036E-2,-1.1692379E-2,1.594064E-1],"categories":[],"categories_nodes":[],"categories_segments":[],"categories_sizes":[],"default_left":[0,0,0,0,0,0,0,0,0,0,0,0,0,0,0,0,0,0,0,0,0],"id":62,"left_children":[1,3,5,7,-1,9,11,-1,-1,13,15,17,-1,-1,19,-1,-1,-1,-1,-1,-1],"loss_changes":[6.1837185E1,5.457928E1,2.5754536E1,4.747989E0,0E0,3.0397587E1,5.417061E-1,0E0,0E0,4.5597105E0,5.3842613E1,3.5757196E0,0E0,0E0,1.9016275E1,0E0,0E0,0E0,0E0,0E0,0E0],"parents":[2147483647,0,0,1,1,2,2,3,3,5,5,6,6,9,9,10,10,11,11,14,14],"right_children":[2,4,6,8,-1,10,12,-1,-1,14,16,18,-1,-1,20,-1,-1,-1,-1,-1,-1],"split_conditions":[5.4983406E0,6E1,5.996665E1,5.5E1,2.4984808E-1,2.8144485E1,6.722191E1,-2.0700034E-2,6.4887606E-2,3.3106953E1,5.6E1,6.6293274E1,-2.5781319E-2,-2.3897756E-2,6.1E1,-2.0627985E-2,2.3332767E-1,-2.3848398E-2,4.1697036E-2,-1.1692379E-2,1.594064E-1],"split_indices":[5,1,4,1,0,3,4,0,0,4,1,4,0,0,1,0,0,0,0,0,0],"split_type":[0,0,0,0,0,0,0,0,0,0,0,0,0,0,0,0,0,0,0,0,0],"sum_hessian":[1.2184098E2,8.698099E0,1.1314288E2,5.2677116E0,3.4303873E0,2.6205004E1,8.693788E1,3.7942114E0,1.4735001E0,1.9133043E1,7.0719604E0,1.2007602E1,7.493028E1,1.0421913E1,8.711129E0,3.7443376E0,3.327623E0,1.0411337E1,1.5962642E0,7.689715E0,1.0214142E0],"tree_param":{"num_deleted":"0","num_feature":"7","num_nodes":"21","size_leaf_vector":"1"}},{"base_weights":[3.4821862E-3,1.0908325E0,-2.58169E-2,-2.4656562E-2,2.1754923E0,-2.4008064E-2,4.5410085E0,2.4987717E-1,-1.3521552E-2],"categories":[],"categories_nodes":[],"categories_segments":[],"categories_sizes":[],"default_left":[0,0,0,0,0,0,0,0,0],"id":63,"left_children":[1,3,-1,-1,5,-1,7,-1,-1],"loss_changes":[7.062082E1,7.049992E1,0E0,0E0,1.5401778E2,0E0,2.964151E1,0E0,0E0],"parents":[2147483647,0,0,1,1,4,4,6,6],"right_children":[2,4,-1,-1,6,-1,8,-1,-1],"split_conditions":[3.1E1,3.5E1,-2.58169E-2,-2.4656562E-2,9.741054E1,-2.4008064E-2,1.1277159E2,2.4987717E-1,-1.3521552E-2],"split_indices":[1,2,0,0,6,0,6,0,0],"split_type":[0,0,0,0,0,0,0,0,0],"sum_hessian":[1.22946014E2,3.9410137E1,8.353588E1,1.6239878E1,2.3170258E1,1.1291189E1,1.1879069E1,1.0814275E1,1.0647945E0],"tree_param":{"num_deleted":"0","num_feature":"7","num_nodes":"9","size_leaf_vector":"1"}},{"base_weights":[-2.4070127E-2,-4.3549025E-1,3.4846787E0,-2.58676E-2,5.576016E-1,2.3700829E-1,-1.970625E-2,-2.1441488E-2,1.6709353E0,1.3898502E-1,-1.550649E-2],"categories":[],"categories_nodes":[],"categories_segments":[],"categories_sizes":[],"default_left":[0,0,0,0,0,0,0,0,0,0,0],"id":64,"left_children":[1,3,5,-1,7,-1,-1,-1,9,-1,-1],"loss_changes":[1.7594199E2,9.152735E0,6.4162506E1,0E0,1.0364274E1,0E0,0E0,0E0,1.03756485E1,0E0,0E0],"parents":[2147483647,0,0,1,1,2,2,4,4,8,8],"right_children":[2,4,6,-1,8,-1,-1,-1,10,-1,-1],"split_conditions":[2.008349E2,1.8226854E2,8.50864E1,-2.58676E-2,8.002131E1,2.3700829E-1,-1.970625E-2,-2.1441488E-2,8.50864E1,1.3898502E-1,-1.550649E-2],"split_indices":[6,6,4,0,4,0,0,0,4,0,0],"split_type":[0,0,0,0,0,0,0,0,0,0,0],"sum_hessian":[1.19828545E2,1.0803655E2,1.1791996E1,1.0025173E2,7.7848196E0,8.740735E0,3.0512607E0,4.453644E0,3.3311756E0,1.877333E0,1.4538426E0],"tree_param":{"num_deleted":"0","num_feature":"7","num_nodes":"11","size_leaf_vector":"1"}},{"base_weights":[2.7302036E-2,1.5923622E0,-2.5856743E-2,3.3654976E0,-2.4471166E-2,2.5037137E-1,-2.1920277E-2],"categories":[],"categories_nodes":[],"categories_segments":[],"categories_sizes":[],"default_left":[0,0,0,0,0,0,0],"id":65,"left_children":[1,3,-1,5,-1,-1,-1],"loss_changes":[1.0648014E2,1.20683304E2,0E0,1.117574E2,0E0,0E0,0E0],"parents":[2147483647,0,0,1,1,3,3],"right_children":[2,4,-1,6,-1,-1,-1],"split_conditions":[6.0469383E1,3.1E1,-2.5856743E-2,2.7022692E1,-2.4471166E-2,2.5037137E-1,-2.1920277E-2],"split_indices":[6,1,0,3,0,0,0],"split_type":[0,0,0,0,0,0,0],"sum_hessian":[1.2299905E2,3.1247873E1,9.1751175E1,1.6541885E1,1.4705988E1,1.1333473E1,5.208411E0],"tree_param":{"num_deleted":"0","num_feature":"7","num_nodes":"7","size_leaf_vector":"1"}},{"base_weights":[-1.6389955E-2,-2.5839536E-2,2.6523006E0,-2.1736443E-2,1.8837327E-1],"categories":[],"categories_nodes":[],"categories_segments":[],"categories_sizes":[],"default_left":[0,0,0,0,0],"id":66,"left_children":[1,-1,3,-1,-1],"loss_changes":[1.6220639E2,0E0,6.766724E1,0E0,0E0],"parents":[2147483647,0,0,2,2],"right_children":[2,-1,4,-1,-1],"split_conditions":[1.95E2,-2.5839536E-2,8.359512E1,-2.1736443E-2,1.8837327E-1],"split_indices":[2,0,4,0,0],"split_type":[0,0,0,0,0],"sum_hessian":[1.1943877E2,1.0125837E2,1.8180399E1,4.98658E0,1.319382E1],"tree_param":{"num_deleted":"0","num_feature":"7","num_nodes":"5","size_leaf_vector":"1"}},{"base_weights":[1.3386754E-2,-4.9225044E-1,1.0980614E0,-2.5775844E-2,1.2160192E-1,-2.4505535E-2,2.1351018E0,3.662039E-2,-1.7113006E-2,-2.3492284E-2,1.8652E-1],"categories":[],"categories_nodes":[],"categories_segments":[],"categories_sizes":[],"default_left":[0,0,0,0,0,0,0,0,0,0,0],"id":67,"left_children":[1,3,5,-1,7,-1,9,-1,-1,-1,-1],"loss_changes":[6.802313E1,1.2711239E0,6.598848E1,0E0,1.3553764E0,0E0,1.016589E2,0E0,0E0,0E0,0E0],"parents":[2147483647,0,0,1,1,2,2,4,4,6,6],"right_children":[2,4,6,-1,8,-1,10,-1,-1,-1,-1],"split_conditions":[8.3E1,8E1,4.5E1,-2.5775844E-2,6.1602674E0,-2.4505535E-2,6.0469383E1,3.662039E-2,-1.7113006E-2,-2.3492284E-2,1.8652E-1],"split_indices":[0,0,2,0,5,0,6,0,0,0,0],"split_type":[0,0,0,0,0,0,0,0,0,0,0],"sum_hessian":[1.2204199E2,8.361145E1,3.843054E1,8.071245E1,2.8990002E0,1.5389592E1,2.3040947E1,1.0014166E0,1.8975836E0,9.019146E0,1.4021801E1],"tree_param":{"num_deleted":"0","num_feature":"7","num_nodes":"11","size_leaf_vector":"1"}},{"base_weights":[2.271686E-2,7.5250864E-1,-2.5732279E-2,-2.5081355E-2,1.8451182E0,-2.3552895E-2,2.9913452E0,-1.8110426E-2,3.4547E0,1.949225E-1,-1.6396528E-2],"categories":[],"categories_nodes":[],"categories_segments":[],"categories_sizes":[],"default_left":[0,0,0,0,0,0,0,0,0,0,0],"id":68,"left_children":[1,3,-1,-1,5,-1,7,-1,9,-1,-1],"loss_changes":[4.858533E1,7.290056E1,0E0,0E0,7.650004E1,0E0,3.0863464E1,0E0,2.9542282E1,0E0,0E0],"parents":[2147483647,0,0,1,1,4,4,6,6,8,8],"right_children":[2,4,-1,-1,6,-1,8,-1,10,-1,-1],"split_conditions":[7.48985E1,5.9655907E1,-2.5732279E-2,-2.5081355E-2,6.524114E0,-2.3552895E-2,5.4E1,-1.8110426E-2,2.6E1,1.949225E-1,-1.6396528E-2],"split_indices":[6,6,0,0,5,0,1,0,2,0,0],"split_type":[0,0,0,0,0,0,0,0,0,0,0],"sum_hessian":[1.21903206E2,5.1525738E1,7.0377464E1,2.4241446E1,2.7284294E1,9.227454E0,1.805684E1,2.2185147E0,1.58383255E1,1.4147972E1,1.6903536E0],"tree_param":{"num_deleted":"0","num_feature":"7","num_nodes":"11","size_leaf_vector":"1"}},{"base_weights":[5.0559077E-2,-2.5822107E-2,2.148842E0,1.8940926E-1,-2.3668345E-2],"categories":[],"categories_nodes":[],"categories_segments":[],"categories_sizes":[],"default_left":[0,0,0,0,0],"id":69,"left_children":[1,-1,3,-1,-1],"loss_changes":[1.4408359E2,0E0,1.1252323E2,0E0,0E0],"parents":[2147483647,0,0,2,2],"right_children":[2,-1,4,-1,-1],"split_conditions":[7.5E1,-2.5822107E-2,8.1E1,1.8940926E-1,-2.3668345E-2],"split_indices":[2,0,1,0,0],"split_type":[0,0,0,0,0],"sum_hessian":[1.19173454E2,9.44145E1,2.4758953E1,1.4961021E1,9.797931E0],"tree_param":{"num_deleted":"0","num_feature":"7","num_nodes":"5","size_leaf_vector":"1"}},{"base_weights":[6.510984E-2,-1.9087504E-1,1.854261E-1,-4.9364734E-1,8.025706E-1,-2.5787054E-2,-5.1176276E-2,-2.4661036E-2,2.9769006E0,-2.0090036E-2,3.6530495E-2,1.9631116E-1,-1.7979776E-2],"categories":[],"categories_nodes":[],"categories_segments":[],"categories_sizes":[],"default_left":[0,0,0,0,0,0,0,0,0,0,0,0,0],"id":70,"left_children":[1,3,-1,5,7,-1,9,-1,11,-1,-1,-1,-1],"loss_changes":[1.1499969E2,3.5122288E1,0E0,8.446598E-1,7.852042E1,0E0,1.7594333E0,0E0,3.420794E1,0E0,0E0,0E0,0E0],"parents":[2147483647,0,0,1,1,3,3,4,4,6,6,8,8],"right_children":[2,4,-1,6,8,-1,10,-1,12,-1,-1,-1,-1],"split_conditions":[9.4944824E1,9.070937E1,1.854261E-1,8.993458E1,1.2956506E2,-2.5787054E-2,1.1673243E2,-2.4661036E-2,3.1E1,-2.0090036E-2,3.6530495E-2,1.9631116E-1,-1.7979776E-2],"split_indices":[4,4,0,4,6,0,6,0,1,0,0,0,0],"split_type":[0,0,0,0,0,0,0,0,0,0,0,0,0],"sum_hessian":[1.21544136E2,1.1445049E2,7.093641E0,8.810258E1,2.6347916E1,8.375488E1,4.3476915E0,1.6993692E1,9.354224E0,3.3370852E0,1.0106065E0,7.144634E0,2.2095902E0],"tree_param":{"num_deleted":"0","num_feature":"7","num_nodes":"13","size_leaf_vector":"1"}},{"base_weights":[-3.839136E-2,-4.920425E-1,9.534431E-1,-2.5768874E-2,-3.8891027E-3,2.6557853E0,-2.4978142E-2,3.598385E-2,-1.9314868E-2,2.1063085E-1,-2.2323461E-2],"categories":[],"categories_nodes":[],"categories_segments":[],"categories_sizes":[],"default_left":[0,0,0,0,0,0,0,0,0,0,0],"id":71,"left_children":[1,3,5,-1,7,9,-1,-1,-1,-1,-1],"loss_changes":[5.541313E1,9.599495E-1,9.6962875E1,0E0,1.6228333E0,8.863525E1,0E0,0E0,0E0,0E0,0E0],"parents":[2147483647,0,0,1,1,2,2,4,4,5,5],"right_children":[2,4,6,-1,8,10,-1,-1,-1,-1,-1],"split_conditions":[1.193937E2,1.1473991E2,6.9948074E1,-2.5768874E-2,8.197904E1,4.1E1,-2.4978142E-2,3.598385E-2,-1.9314868E-2,2.1063085E-1,-2.2323461E-2],"split_indices":[6,6,4,0,4,1,0,0,0,0,0],"split_type":[0,0,0,0,0,0,0,0,0,0,0],"sum_hessian":[1.21112206E2,8.344811E1,3.766409E1,7.9587845E1,3.8602653E0,1.6962744E1,2.0701345E1,1.0297966E0,2.8304684E0,1.1056329E1,5.9064155E0],"tree_param":{"num_deleted":"0","num_feature":"7","num_nodes":"11","size_leaf_vector":"1"}},{"base_weights":[1.03552295E-2,-2.5827277E-2,2.0496647E0,-2.3133537E-2,3.1632917E0,1.9169956E-1,-1.9060338E-2],"categories":[],"categories_nodes":[],"categories_segments":[],"categories_sizes":[],"default_left":[0,0,0,0,0,0,0],"id":72,"left_children":[1,-1,3,-1,5,-1,-1],"loss_changes":[1.3211595E2,0E0,7.2091995E1,0E0,4.3346313E1,0E0,0E0],"parents":[2147483647,0,0,2,2,4,4],"right_children":[2,-1,4,-1,6,-1,-1],"split_conditions":[1E2,-2.5827277E-2,3.6E1,-2.3133537E-2,6.1E1,1.9169956E-1,-1.9060338E-2],"split_indices":[0,0,1,0,1,0,0],"split_type":[0,0,0,0,0,0,0],"sum_hessian":[1.20968834E2,9.67246E1,2.4244236E1,7.625558E0,1.6618677E1,1.3905725E1,2.712953E0],"tree_param":{"num_deleted":"0","num_feature":"7","num_nodes":"7","size_leaf_vector":"1"}},{"base_weights":[1.3342043E-2,-2.584221E-2,2.680435E0,1.8996994E-1,-2.197135E-2],"categories":[],"categories_nodes":[],"categories_segments":[],"categories_sizes":[],"default_left":[0,0,0,0,0],"id":73,"left_children":[1,-1,3,-1,-1],"loss_changes":[1.753152E2,0E0,7.343828E1,0E0,0E0],"parents":[2147483647,0,0,2,2],"right_children":[2,-1,4,-1,-1],"split_conditions":[1.95E2,-2.584221E-2,8.389181E1,1.8996994E-1,-2.197135E-2],"split_indices":[2,0,4,0,0],"split_type":[0,0,0,0,0],"sum_hessian":[1.2200066E2,1.0244253E2,1.955814E1,1.4234877E1,5.323263E0],"tree_param":{"num_deleted":"0","num_feature":"7","num_nodes":"5","size_leaf_vector":"1"}},{"base_weights":[-1.4955227E-3,-2.5806552E-2,1.5145968E0,-2.3117725E-2,2.19299E0,2.8228576E0,-2.124098E-2,-1.9815167E-2,3.4875948E0,3.1342726E-2,1.836568E-1],"categories":[],"categories_nodes":[],"categories_segments":[],"categories_sizes":[],"default_left":[0,0,0,0,0,0,0,0,0,0,0],"id":74,"left_children":[1,-1,3,-1,5,7,-1,-1,9,-1,-1],"loss_changes":[9.522586E1,0E0,4.2495827E1,0E0,3.945658E1,4.168283E1,0E0,0E0,6.037018E0,0E0,0E0],"parents":[2147483647,0,0,2,2,4,4,5,5,8,8],"right_children":[2,-1,4,-1,6,8,-1,-1,10,-1,-1],"split_conditions":[1.5020122E2,-2.5806552E-2,5.9E1,-2.3117725E-2,2.008349E2,6.9948074E1,-2.124098E-2,-1.9815167E-2,2.3193054E1,3.1342726E-2,1.836568E-1],"split_indices":[6,0,0,0,6,4,0,0,3,0,0],"split_type":[0,0,0,0,0,0,0,0,0,0,0],"sum_hessian":[1.2004575E2,9.011568E1,2.993008E1,7.727962E0,2.2202118E1,1.7833012E1,4.369105E0,3.1212711E0,1.4711741E1,1.1627371E0,1.3549005E1],"tree_param":{"num_deleted":"0","num_feature":"7","num_nodes":"11","size_leaf_vector":"1"}},{"base_weights":[-2.4983186E-2,2.6429443E0,-2.5849188E-2,-2.06262E-2,3.4299777E0,1.8172775E-1,3.0186703E-2],"categories":[],"categories_nodes":[],"categories_segments":[],"categories_sizes":[],"default_left":[0,0,0,0,0,0,0],"id":75,"left_children":[1,3,-1,-1,5,-1,-1],"loss_changes":[1.5969772E2,4.697177E1,0E0,0E0,6.5776825E0,0E0,0E0],"parents":[2147483647,0,0,1,1,4,4],"right_children":[2,4,-1,-1,6,-1,-1],"split_conditions":[3.3106953E1,1.7808525E1,-2.5849188E-2,-2.06262E-2,3.8E1,1.8172775E-1,3.0186703E-2],"split_indices":[4,4,0,0,0,0,0],"split_type":[0,0,0,0,0,0,0],"sum_hessian":[1.19622215E2,1.7944475E1,1.0167774E2,3.772909E0,1.4171567E1,1.2948302E1,1.2232642E0],"tree_param":{"num_deleted":"0","num_feature":"7","num_nodes":"7","size_leaf_vector":"1"}},{"base_weights":[-1.4557772E-3,6.424206E-1,-2.5714938E-2,-2.5167406E-2,1.7685015E0,-2.2234572E-2,2.3591995E0,2.9886584E0,7.6871544E-2,1.081066E-2,1.575603E-1,3.4498923E-2,-1.9500246E-2],"categories":[],"categories_nodes":[],"categories_segments":[],"categories_sizes":[],"default_left":[0,0,0,0,0,0,0,0,0,0,0,0,0],"id":76,"left_children":[1,3,-1,-1,5,-1,7,9,11,-1,-1,-1,-1],"loss_changes":[4.0924286E1,7.178672E1,0E0,0E0,3.756814E1,0E0,3.167466E1,7.151306E0,1.9371008E0,0E0,0E0,0E0,0E0],"parents":[2147483647,0,0,1,1,4,4,6,6,7,7,8,8],"right_children":[2,4,-1,-1,6,-1,8,10,12,-1,-1,-1,-1],"split_conditions":[6.9948074E1,5.996665E1,-2.5714938E-2,-2.5167406E-2,5.5E1,-2.2234572E-2,2.9084179E1,5.931102E0,2.9878881E1,1.081066E-2,1.575603E-1,3.4498923E-2,-1.9500246E-2],"split_indices":[4,4,0,0,1,0,3,5,3,0,0,0,0],"split_type":[0,0,0,0,0,0,0,0,0,0,0,0,0],"sum_hessian":[1.219345E2,5.3948845E1,6.798566E1,2.7014772E1,2.6934074E1,5.7262964E0,2.1207777E1,1.6380585E1,4.8271923E0,1.0362487E0,1.53443365E1,1.8802148E0,2.9469776E0],"tree_param":{"num_deleted":"0","num_feature":"7","num_nodes":"13","size_leaf_vector":"1"}},{"base_weights":[2.470597E-2,-2.5753126E-2,7.786608E-1,2.6529815E0,-4.756706E-1,1.9882254E-1,-2.255891E-2,1.1564782E-2,-2.5278494E-2],"categories":[],"categories_nodes":[],"categories_segments":[],"categories_sizes":[],"default_left":[0,0,0,0,0,0,0,0,0],"id":77,"left_children":[1,-1,3,5,7,-1,-1,-1,-1],"loss_changes":[5.1687984E1,0E0,1.2581438E2,8.9677414E1,8.0573463E-1,0E0,0E0,0E0,0E0],"parents":[2147483647,0,0,2,2,3,3,4,4],"right_children":[2,-1,4,6,8,-1,-1,-1,-1],"split_conditions":[6E1,-2.5753126E-2,7.381995E1,1.09858574E2,2.0938929E1,1.9882254E-1,-2.255891E-2,1.1564782E-2,-2.5278494E-2],"split_indices":[0,0,4,6,3,0,0,0,0],"split_type":[0,0,0,0,0,0,0,0,0],"sum_hessian":[1.2502417E2,7.304612E1,5.197805E1,2.0391863E1,3.1586187E1,1.409949E1,6.292373E0,1.008335E0,3.0577852E1],"tree_param":{"num_deleted":"0","num_feature":"7","num_nodes":"9","size_leaf_vector":"1"}},{"base_weights":[3.4156353E-3,1.3892347E0,-2.5805244E-2,-2.4423754E-2,2.8164854E0,-2.0904932E-2,3.659523E0,1.9513895E-1,1.0261434E-2],"categories":[],"categories_nodes":[],"categories_segments":[],"categories_sizes":[],"default_left":[0,0,0,0,0,0,0,0,0],"id":78,"left_children":[1,3,-1,-1,5,-1,7,-1,-1],"loss_changes":[8.9659256E1,9.237472E1,0E0,0E0,5.4539078E1,0E0,1.22425995E1,0E0,0E0],"parents":[2147483647,0,0,1,1,4,4,6,6],"right_children":[2,4,-1,-1,6,-1,8,-1,-1],"split_conditions":[5.5187923E1,2.691515E1,-2.5805244E-2,-2.4423754E-2,2.5E1,-2.0904932E-2,1.0059787E2,1.9513895E-1,1.0261434E-2],"split_indices":[4,3,0,0,2,0,6,0,0],"split_type":[0,0,0,0,0,0,0,0,0],"sum_hessian":[1.2253754E2,3.2955307E1,8.958223E1,1.4515835E1,1.8439472E1,3.9165251E0,1.4522946E1,1.3446214E1,1.0767331E0],"tree_param":{"num_deleted":"0","num_feature":"7","num_nodes":"9","size_leaf_vector":"1"}},{"base_weights":[3.7067991E-3,9.4032115E-1,-5.031043E-1,1.8438176E0,-2.4658447E-2,8.052816E-3,-2.5773248E-2,3.2304652E0,-2.3730608E-2,3.9062698E0,-1.881301E-2,7.4328887E-3,2.130504E-1],"categories":[],"categories_nodes":[],"categories_segments":[],"categories_sizes":[],"default_left":[0,0,0,0,0,0,0,0,0,0,0,0,0],"id":79,"left_children":[1,3,5,7,-1,-1,-1,9,-1,11,-1,-1,-1],"loss_changes":[5.8395203E1,5.6850197E1,7.383728E-1,8.7385544E1,0E0,0E0,0E0,4.2512848E1,0E0,1.8386963E1,0E0,0E0,0E0],"parents":[2147483647,0,0,1,1,2,2,3,3,7,7,9,9],"right_children":[2,4,6,8,-1,-1,-1,10,-1,12,-1,-1,-1],"split_conditions":[6.368129E1,6E1,5.510925E0,2.6E1,-2.4658447E-2,8.052816E-3,-2.5773248E-2,4.1E1,-2.3730608E-2,4.0124275E1,-1.881301E-2,7.4328887E-3,2.130504E-1],"split_indices":[4,1,5,2,0,0,0,0,0,4,0,0,0],"split_type":[0,0,0,0,0,0,0,0,0,0,0,0,0],"sum_hessian":[1.2102183E2,4.219248E1,7.8829346E1,2.5704971E1,1.6487509E1,1.2204822E0,7.7608864E1,1.58385725E1,9.866399E0,1.326922E1,2.5693521E0,1.2670356E0,1.2002185E1],"tree_param":{"num_deleted":"0","num_feature":"7","num_nodes":"13","size_leaf_vector":"1"}},{"base_weights":[-1.5848312E-3,1.3496315E0,-2.5814742E-2,-2.391774E-2,2.2074935E0,-2.2423053E-2,3.135396E0,-1.9435141E-2,3.8313525E0,1.9964896E-1,5.3699173E-2],"categories":[],"categories_nodes":[],"categories_segments":[],"categories_sizes":[],"default_left":[0,0,0,0,0,0,0,0,0,0,0],"id":80,"left_children":[1,3,-1,-1,5,-1,7,-1,9,-1,-1],"loss_changes":[8.746339E1,5.545624E1,0E0,0E0,6.0031967E1,0E0,4.5034225E1,0E0,2.3602753E0,0E0,0E0],"parents":[2147483647,0,0,1,1,4,4,6,6,8,8],"right_children":[2,4,-1,-1,6,-1,8,-1,10,-1,-1],"split_conditions":[6.0469383E1,2.7100533E1,-2.5814742E-2,-2.391774E-2,3.612043E1,-2.2423053E-2,6.955863E1,-1.9435141E-2,8.932595E1,1.9964896E-1,5.3699173E-2],"split_indices":[6,3,0,0,6,0,4,0,4,0,0],"split_type":[0,0,0,0,0,0,0,0,0,0,0],"sum_hessian":[1.23756996E2,3.3690525E1,9.006647E1,1.0902078E1,2.278845E1,6.033974E0,1.6754475E1,2.835897E0,1.3918578E1,1.2724599E1,1.1939794E0],"tree_param":{"num_deleted":"0","num_feature":"7","num_nodes":"11","size_leaf_vector":"1"}},{"base_weights":[2.4038343E-2,-2.5799517E-2,1.2642409E0,-2.4993893E-2,1.943252E-1],"categories":[],"categories_nodes":[],"categories_segments":[],"categories_sizes":[],"default_left":[0,0,0,0,0],"id":81,"left_children":[1,-1,3,-1,-1],"loss_changes":[8.387295E1,0E0,1.7765128E2,0E0,0E0],"parents":[2147483647,0,0,2,2],"right_children":[2,-1,4,-1,-1],"split_conditions":[9.002575E1,-2.5799517E-2,7.1E1,-2.4993893E-2,1.943252E-1],"split_indices":[4,0,0,0,0],"split_type":[0,0,0,0,0],"sum_hessian":[1.2325718E2,8.627423E1,3.698295E1,2.2592972E1,1.4389975E1],"tree_param":{"num_deleted":"0","num_feature":"7","num_nodes":"5","size_leaf_vector":"1"}},{"base_weights":[-2.9146215E-3,9.848929E-1,-2.5773672E-2,3.45735E-1,3.2579296E0,-2.4375353E-2,9.7329926E-1,1.8961857E-1,-1.3794566E-2,1.7955512E0,-2.2829382E-2,4.129607E-2,1.7027871E-1],"categories":[],"categories_nodes":[],"categories_segments":[],"categories_sizes":[],"default_left":[0,0,0,0,0,0,0,0,0,0,0,0,0],"id":82,"left_children":[1,3,-1,5,7,-1,9,-1,-1,11,-1,-1,-1],"loss_changes":[6.1951584E1,5.960427E1,0E0,1.8120651E1,1.814917E1,0E0,2.3843311E1,0E0,0E0,1.6913017E1,0E0,0E0,0E0],"parents":[2147483647,0,0,1,1,3,3,4,4,6,6,9,9],"right_children":[2,4,-1,6,8,-1,10,-1,-1,12,-1,-1,-1],"split_conditions":[3.1E1,7.105905E0,-2.5773672E-2,1.001738E2,4E1,-2.4375353E-2,1.2015938E2,1.8961857E-1,-1.3794566E-2,1.1231266E2,-2.2829382E-2,4.129607E-2,1.7027871E-1],"split_indices":[1,5,0,6,0,0,6,0,0,6,0,0,0],"split_type":[0,0,0,0,0,0,0,0,0,0,0,0,0],"sum_hessian":[1.2035641E2,4.080164E1,7.955476E1,3.2745888E1,8.055752E0,1.4163551E1,1.8582335E1,6.933926E0,1.1218257E0,1.1635594E1,6.94674E0,8.206344E0,3.4292505E0],"tree_param":{"num_deleted":"0","num_feature":"7","num_nodes":"13","size_leaf_vector":"1"}},{"base_weights":[6.4603804E-4,-3.2029903E-1,2.1878068E0,-2.5768513E-2,2.719041E-1,-2.2044329E-2,3.5979452E0,-2.4650395E-2,1.5763093E0,3.2858904E-2,1.94454E-1,-2.1251088E-2,3.1441197E0,1.9746855E-1,-1.337439E-2],"categories":[],"categories_nodes":[],"categories_segments":[],"categories_sizes":[],"default_left":[0,0,0,0,0,0,0,0,0,0,0,0,0,0,0],"id":83,"left_children":[1,3,5,-1,7,-1,9,-1,11,-1,-1,-1,13,-1,-1],"loss_changes":[8.536933E1,1.239183E1,5.9272995E1,0E0,2.7649736E1,0E0,6.2095337E0,0E0,3.3321827E1,0E0,0E0,0E0,1.7086674E1,0E0,0E0],"parents":[2147483647,0,0,1,1,2,2,4,4,6,6,8,8,12,12],"right_children":[2,4,6,-1,8,-1,10,-1,12,-1,-1,-1,14,-1,-1],"split_conditions":[3.1532438E1,9.015407E1,8.3346886E1,-2.5768513E-2,6.5739803E0,-2.2044329E-2,3.2E1,-2.4650395E-2,4.7E1,3.2858904E-2,1.94454E-1,-2.1251088E-2,7.1E1,1.9746855E-1,-1.337439E-2],"split_indices":[3,4,4,0,5,0,0,0,2,0,0,0,0,0,0],"split_type":[0,0,0,0,0,0,0,0,0,0,0,0,0,0,0],"sum_hessian":[1.1961764E2,1.0505532E2,1.4562315E1,7.912226E1,2.5933064E1,5.3243437E0,9.237971E0,1.6739155E1,9.193909E0,1.125593E0,8.112378E0,4.358778E0,4.8351307E0,3.7842877E0,1.050843E0],"tree_param":{"num_deleted":"0","num_feature":"7","num_nodes":"15","size_leaf_vector":"1"}},{"base_weights":[-8.12941E-2,1.9687418E0,-2.4263898E-1,-2.0226112E-2,1.8081002E-1,-4.6422365E-1,3.1453186E-1,-4.9725243E-1,-3.241398E-1,2.6239972E0,-2.5038991E-2,-1.9636285E-1,-2.5649985E-2,2.8844476E-1,-2.4282597E-2,7.875766E-1,1.8008187E-1,-1.8885203E-2,1.0861888E-2,-1.8140625E-2,5.9213813E-2,-1.6255444E-2,8.133876E-2],"categories":[],"categories_nodes":[],"categories_segments":[],"categories_sizes":[],"default_left":[0,0,0,0,0,0,0,0,0,0,0,0,0,0,0,0,0,0,0,0,0,0,0],"id":84,"left_children":[1,3,5,-1,-1,7,9,11,13,15,-1,17,-1,19,-1,21,-1,-1,-1,-1,-1,-1,-1],"loss_changes":[3.891609E1,3.504315E1,1.3556632E1,0E0,0E0,2.0026398E-1,6.063266E1,1.8991756E-1,1.8989486E0,1.2208626E1,0E0,4.3238062E-1,0E0,2.9596574E0,0E0,4.442477E0,0E0,0E0,0E0,0E0,0E0,0E0,0E0],"parents":[2147483647,0,0,1,1,2,2,5,5,6,6,7,7,8,8,9,9,11,11,13,13,15,15],"right_children":[2,4,6,-1,-1,8,10,12,14,16,-1,18,-1,20,-1,22,-1,-1,-1,-1,-1,-1,-1],"split_conditions":[5.421265E0,5.5E1,1.2015938E2,-2.0226112E-2,1.8081002E-1,7.5E1,2.6E1,5.765015E0,2.6E1,6.6E1,-2.5038991E-2,5.7093806E0,-2.5649985E-2,7.0181854E1,-2.4282597E-2,1.4063052E2,1.8008187E-1,-1.8885203E-2,1.0861888E-2,-1.8140625E-2,5.9213813E-2,-1.6255444E-2,8.133876E-2],"split_indices":[5,1,6,0,0,1,2,5,2,1,0,5,0,6,0,6,0,0,0,0,0,0,0],"split_type":[0,0,0,0,0,0,0,0,0,0,0,0,0,0,0,0,0,0,0,0,0,0,0],"sum_hessian":[1.15211365E2,7.5886374E0,1.07622734E2,3.4185154E0,4.1701217E0,7.7119446E1,3.0503286E1,6.034233E1,1.6777113E1,7.3800464E0,2.312324E1,3.6708782E0,5.667145E1,3.3365011E0,1.3440611E1,3.1912055E0,4.188841E0,2.6123128E0,1.0585655E0,2.2765093E0,1.059992E0,1.6354172E0,1.5557882E0],"tree_param":{"num_deleted":"0","num_feature":"7","num_nodes":"23","size_leaf_vector":"1"}},{"base_weights":[4.037863E-2,1.0839002E0,-2.5775066E-2,2.7813976E0,-2.49867E-2,3.2316926E0,-1.8732602E-2,-1.4760266E-2,3.5137365E0,1.8525521E-1,4.4041798E-2],"categories":[],"categories_nodes":[],"categories_segments":[],"categories_sizes":[],"default_left":[0,0,0,0,0,0,0,0,0,0,0],"id":85,"left_children":[1,3,-1,5,-1,7,-1,-1,9,-1,-1],"loss_changes":[7.2627045E1,1.1833423E2,0E0,3.1266434E1,0E0,1.9551346E1,0E0,0E0,5.45874E0,0E0,0E0],"parents":[2147483647,0,0,1,1,3,3,5,5,8,8],"right_children":[2,4,-1,6,-1,8,-1,-1,10,-1,-1],"split_conditions":[3.1E1,2.497256E1,-2.5775066E-2,4.1E1,-2.49867E-2,1.7665585E1,-1.8732602E-2,-1.4760266E-2,1.11839195E2,1.8525521E-1,4.4041798E-2],"split_indices":[1,3,0,0,0,3,0,0,6,0,0],"split_type":[0,0,0,0,0,0,0,0,0,0,0],"sum_hessian":[1.232401E2,4.2502575E1,8.0737526E1,2.0148771E1,2.2353804E1,1.761198E1,2.5367892E0,1.3006738E0,1.6311308E1,1.4826442E1,1.4848658E0],"tree_param":{"num_deleted":"0","num_feature":"7","num_nodes":"11","size_leaf_vector":"1"}},{"base_weights":[2.6543114E-2,-2.5833646E-2,2.429713E0,3.110738E0,-2.1164078E-2,-2.0703975E-2,2.0163694E-1],"categories":[],"categories_nodes":[],"categories_segments":[],"categories_sizes":[],"default_left":[0,0,0,0,0,0,0],"id":86,"left_children":[1,-1,3,5,-1,-1,-1],"loss_changes":[1.60619E2,0E0,4.538739E1,6.1568542E1,0E0,0E0,0E0],"parents":[2147483647,0,0,2,2,3,3],"right_children":[2,-1,4,6,-1,-1,-1],"split_conditions":[1.8226854E2,-2.5833646E-2,8.50864E1,8.002131E1,-2.1164078E-2,-2.0703975E-2,2.0163694E-1],"split_indices":[6,0,4,4,0,0,0],"split_type":[0,0,0,0,0,0,0],"sum_hessian":[1.2107654E2,9.939431E1,2.168223E1,1.7431013E1,4.251217E0,3.728357E0,1.3702656E1],"tree_param":{"num_deleted":"0","num_feature":"7","num_nodes":"7","size_leaf_vector":"1"}},{"base_weights":[-3.9803978E-2,1.2337776E0,-2.5818823E-2,-2.4519337E-2,2.6879153E0,1.9718681E-1,-2.1927482E-2],"categories":[],"categories_nodes":[],"categories_segments":[],"categories_sizes":[],"default_left":[0,0,0,0,0,0,0],"id":87,"left_children":[1,3,-1,-1,5,-1,-1],"loss_changes":[7.610502E1,8.69453E1,0E0,0E0,7.507849E1,0E0,0E0],"parents":[2147483647,0,0,1,1,4,4],"right_children":[2,4,-1,-1,6,-1,-1],"split_conditions":[6.0469383E1,6.9E1,-2.5818823E-2,-2.4519337E-2,9.002575E1,1.9718681E-1,-2.1927482E-2],"split_indices":[6,0,0,0,4,0,0],"split_type":[0,0,0,0,0,0,0],"sum_hessian":[1.2333879E2,3.315289E1,9.01859E1,1.5471347E1,1.7681543E1,1.2428092E1,5.2534513E0],"tree_param":{"num_deleted":"0","num_feature":"7","num_nodes":"7","size_leaf_vector":"1"}},{"base_weights":[-2.1580101E-3,-2.5805054E-2,2.3532689E0,-2.1655377E-2,1.5865247E-1],"categories":[],"categories_nodes":[],"categories_segments":[],"categories_sizes":[],"default_left":[0,0,0,0,0],"id":88,"left_children":[1,-1,3,-1,-1],"loss_changes":[1.4919267E2,0E0,5.1797646E1,0E0,0E0],"parents":[2147483647,0,0,2,2],"right_children":[2,-1,4,-1,-1],"split_conditions":[1.95E2,-2.5805054E-2,8.389181E1,-2.1655377E-2,1.5865247E-1],"split_indices":[2,0,4,0,0],"split_type":[0,0,0,0,0],"sum_hessian":[1.2123988E2,1.001652E2,2.1074686E1,4.898092E0,1.6176594E1],"tree_param":{"num_deleted":"0","num_feature":"7","num_nodes":"5","size_leaf_vector":"1"}},{"base_weights":[5.2717716E-2,-2.5737895E-2,1.0445052E0,1.8076072E0,-2.4456913E-2,-2.3176026E-2,2.6317213E0,3.1675081E0,-2.0013545E-2,3.442714E-2,1.6365102E-1],"categories":[],"categories_nodes":[],"categories_segments":[],"categories_sizes":[],"default_left":[0,0,0,0,0,0,0,0,0,0,0],"id":89,"left_children":[1,-1,3,5,-1,-1,7,9,-1,-1,-1],"loss_changes":[7.054165E1,0E0,5.424806E1,5.860614E1,0E0,0E0,3.805768E1,2.8096924E0,0E0,0E0,0E0],"parents":[2147483647,0,0,2,2,3,3,6,6,7,7],"right_children":[2,-1,4,6,-1,-1,8,10,-1,-1,-1],"split_conditions":[8E1,-2.5737895E-2,6.4996047E0,9.009587E1,-2.4456913E-2,-2.3176026E-2,1.2015938E2,2.5097374E1,-2.0013545E-2,3.442714E-2,1.6365102E-1],"split_indices":[0,0,5,6,0,0,6,3,0,0,0],"split_type":[0,0,0,0,0,0,0,0,0,0,0],"sum_hessian":[1.2338183E2,7.878439E1,4.4597443E1,2.9660498E1,1.4936943E1,8.013664E0,2.1646833E1,1.8358065E1,3.2887697E0,1.056714E0,1.730135E1],"tree_param":{"num_deleted":"0","num_feature":"7","num_nodes":"11","size_leaf_vector":"1"}},{"base_weights":[-2.0831279E-3,6.399408E-1,-2.5687978E-2,-2.5081003E-2,1.6094971E0,-2.3504807E-2,2.5501304E0,-1.8597504E-2,2.9644716E0,1.5845099E-1,-1.3599955E-2],"categories":[],"categories_nodes":[],"categories_segments":[],"categories_sizes":[],"default_left":[0,0,0,0,0,0,0,0,0,0,0],"id":90,"left_children":[1,3,-1,-1,5,-1,7,-1,9,-1,-1],"loss_changes":[4.0590122E1,6.1461388E1,0E0,0E0,5.9629547E1,0E0,2.6192978E1,0E0,1.295105E1,0E0,0E0],"parents":[2147483647,0,0,1,1,4,4,6,6,8,8],"right_children":[2,4,-1,-1,6,-1,8,-1,10,-1,-1],"split_conditions":[7.55779E1,5.9655907E1,-2.5687978E-2,-2.5081003E-2,6.512196E0,-2.3504807E-2,2.5035124E1,-1.8597504E-2,7.7867255E0,1.5845099E-1,-1.3599955E-2],"split_indices":[6,6,0,0,5,0,3,0,5,0,0],"split_type":[0,0,0,0,0,0,0,0,0,0,0],"sum_hessian":[1.2155801E2,5.3800884E1,6.775712E1,2.4930367E1,2.8870518E1,9.147363E0,1.9723156E1,2.462072E0,1.7261084E1,1.6254618E1,1.0064666E0],"tree_param":{"num_deleted":"0","num_feature":"7","num_nodes":"11","size_leaf_vector":"1"}},{"base_weights":[-4.027135E-2,2.8008215E0,-2.5814643E-2,-1.6362417E-2,1.5757385E-1],"categories":[],"categories_nodes":[],"categories_segments":[],"categories_sizes":[],"default_left":[0,0,0,0,0],"id":91,"left_children":[1,3,-1,-1,-1],"loss_changes":[1.6602893E2,2.035765E1,0E0,0E0,0E0],"parents":[2147483647,0,0,1,1],"right_children":[2,4,-1,-1,-1],"split_conditions":[2.0182383E1,5.9620013E0,-2.5814643E-2,-1.6362417E-2,1.5757385E-1],"split_indices":[4,5,0,0,0],"split_type":[0,0,0,0,0],"sum_hessian":[1.20694984E2,1.6619448E1,1.0407554E2,1.6819681E0,1.4937479E1],"tree_param":{"num_deleted":"0","num_feature":"7","num_nodes":"5","size_leaf_vector":"1"}},{"base_weights":[1.6947132E-2,-2.1581101E-1,1.6299178E-1,-5.0412554E-1,7.307525E-1,-2.5750881E-2,-2.6100978E-1,2.018709E0,-2.4329716E-2,8.773583E-3,-2.0485481E-2,-2.1123461E-2,1.5940475E-1],"categories":[],"categories_nodes":[],"categories_segments":[],"categories_sizes":[],"default_left":[0,0,0,0,0,0,0,0,0,0,0,0,0],"id":92,"left_children":[1,3,-1,5,7,-1,9,11,-1,-1,-1,-1,-1],"loss_changes":[9.27463E1,3.1674635E1,0E0,9.998703E-2,4.3614952E1,0E0,4.4986454E-1,3.961844E1,0E0,0E0,0E0,0E0,0E0],"parents":[2147483647,0,0,1,1,3,3,4,4,6,6,7,7],"right_children":[2,4,-1,6,8,-1,10,12,-1,-1,-1,-1,-1],"split_conditions":[9.5113205E1,9.079094E1,1.6299178E-1,8.993458E1,3.6E1,-2.5750881E-2,9.015407E1,1.6E1,-2.4329716E-2,8.773583E-3,-2.0485481E-2,-2.1123461E-2,1.5940475E-1],"split_indices":[4,4,0,4,2,0,4,2,0,0,0,0,0],"split_type":[0,0,0,0,0,0,0,0,0,0,0,0,0],"sum_hessian":[1.2094188E2,1.1371355E2,7.2283325E0,8.752244E1,2.619111E1,8.2698944E1,4.823493E0,1.2406604E1,1.3784507E1,1.1799434E0,3.6435494E0,4.225109E0,8.181495E0],"tree_param":{"num_deleted":"0","num_feature":"7","num_nodes":"13","size_leaf_vector":"1"}},{"base_weights":[-1.5952045E-2,-5.0264966E-1,9.8354256E-1,-2.5732791E-2,-8.378295E-2,-2.4823595E-2,2.4501157E0,1.1730973E-2,-1.55165065E-2,1.703417E-1,-2.1829057E-2],"categories":[],"categories_nodes":[],"categories_segments":[],"categories_sizes":[],"default_left":[0,0,0,0,0,0,0,0,0,0,0],"id":93,"left_children":[1,3,5,-1,7,-1,9,-1,-1,-1,-1],"loss_changes":[5.896058E1,3.6669922E-1,8.738223E1,0E0,3.2276452E-1,0E0,5.702043E1,0E0,0E0,0E0,0E0],"parents":[2147483647,0,0,1,1,2,2,4,4,6,6],"right_children":[2,4,6,-1,8,-1,10,-1,-1,-1,-1],"split_conditions":[1.2015938E2,1.17076126E2,8E1,-2.5732791E-2,2.3193054E1,-2.4823595E-2,3.6E1,1.1730973E-2,-1.55165065E-2,1.703417E-1,-2.1829057E-2],"split_indices":[6,6,0,0,3,0,2,0,0,0,0],"split_type":[0,0,0,0,0,0,0,0,0,0,0],"sum_hessian":[1.19189125E2,8.0491425E1,3.86977E1,7.802624E1,2.4651885E0,1.9589815E1,1.9107883E1,1.0100187E0,1.4551699E0,1.4216141E1,4.891743E0],"tree_param":{"num_deleted":"0","num_feature":"7","num_nodes":"11","size_leaf_vector":"1"}},{"base_weights":[-1.950224E-3,-2.5793562E-2,1.8462924E0,1.5961643E-1,-2.3648134E-2],"categories":[],"categories_nodes":[],"categories_segments":[],"categories_sizes":[],"default_left":[0,0,0,0,0],"id":94,"left_children":[1,-1,3,-1,-1],"loss_changes":[1.1720303E2,0E0,8.531657E1,0E0,0E0],"parents":[2147483647,0,0,2,2],"right_children":[2,-1,4,-1,-1],"split_conditions":[1E2,-2.5793562E-2,2.6E1,1.5961643E-1,-2.3648134E-2],"split_indices":[0,0,2,0,0],"split_type":[0,0,0,0,0],"sum_hessian":[1.21388275E2,9.554264E1,2.5845633E1,1.6115921E1,9.729712E0],"tree_param":{"num_deleted":"0","num_feature":"7","num_nodes":"5","size_leaf_vector":"1"}},{"base_weights":[2.3335392E-2,-2.5802568E-2,2.3847399E0,1.5949778E-1,-2.16943E-2],"categories":[],"categories_nodes":[],"categories_segments":[],"categories_sizes":[],"default_left":[0,0,0,0,0],"id":95,"left_children":[1,-1,3,-1,-1],"loss_changes":[1.5655301E2,0E0,5.3251038E1,0E0,0E0],"parents":[2147483647,0,0,2,2],"right_children":[2,-1,4,-1,-1],"split_conditions":[1.2E2,-2.5802568E-2,7.458565E1,1.5949778E-1,-2.16943E-2],"split_indices":[1,0,6,0,0],"split_type":[0,0,0,0,0],"sum_hessian":[1.2094481E2,9.909192E1,2.1852892E1,1.6894722E1,4.95817E0],"tree_param":{"num_deleted":"0","num_feature":"7","num_nodes":"5","size_leaf_vector":"1"}},{"base_weights":[-2.6943738E-2,-2.5688589E-2,6.1605877E-1,1.4442186E0,-3.8084278E-1,-2.1990081E-2,1.8958921E0,-1.6954859E-1,-2.441374E-2,2.4620109E0,-2.1532578E-2,-2.2521487E-2,4.0499696E-1,-1.6719941E-2,1.3763472E-1,-1.4070155E-2,4.056732E-2],"categories":[],"categories_nodes":[],"categories_segments":[],"categories_sizes":[],"default_left":[0,0,0,0,0,0,0,0,0,0,0,0,0,0,0,0,0],"id":96,"left_children":[1,-1,3,5,7,-1,9,11,-1,13,-1,-1,15,-1,-1,-1,-1],"loss_changes":[3.813377E1,0E0,4.39019E1,2.5419052E1,4.760549E-1,0E0,3.2002228E1,1.7688011E0,0E0,1.640055E1,0E0,0E0,1.275459E0,0E0,0E0,0E0,0E0],"parents":[2147483647,0,0,2,2,3,3,4,4,6,6,7,7,9,9,12,12],"right_children":[2,-1,4,6,8,-1,10,12,-1,14,-1,-1,16,-1,-1,-1,-1],"split_conditions":[6E1,-2.5688589E-2,9.1E1,3.5E1,1.01E2,-2.1990081E-2,4.6E1,9.9E1,-2.441374E-2,6.0002484E0,-2.1532578E-2,-2.2521487E-2,3.6E1,-1.6719941E-2,1.3763472E-1,-1.4070155E-2,4.056732E-2],"split_indices":[0,0,0,2,0,0,2,0,0,5,0,0,2,0,0,0,0],"split_type":[0,0,0,0,0,0,0,0,0,0,0,0,0,0,0,0,0],"sum_hessian":[1.1980969E2,6.829977E1,5.150993E1,2.789112E1,2.3618809E1,5.398631E0,2.2492489E1,8.830141E0,1.4788668E1,1.8043684E1,4.4488044E0,6.075838E0,2.7543027E0,1.6848493E0,1.6358835E1,1.1385554E0,1.6157473E0],"tree_param":{"num_deleted":"0","num_feature":"7","num_nodes":"17","size_leaf_vector":"1"}},{"base_weights":[-1.0932789E-2,1.003483E0,-4.0484113E-1,1.8786901E0,-2.415775E-2,-6.106266E-2,-2.5685105E-2,-2.5360113E-1,2.4621272E0,-2.4256734E-2,6.1317736E-1,1.1089829E-2,-2.039778E-2,-1.564944E-2,2.7448027E0,1.611423E0,-2.1124022E-2,1.4608775E-1,9.76477E-3,9.885486E-2,9.640337E-3],"categories":[],"categories_nodes":[],"categories_segments":[],"categories_sizes":[],"default_left":[0,0,0,0,0,0,0,0,0,0,0,0,0,0,0,0,0,0,0,0,0],"id":97,"left_children":[1,3,5,7,-1,9,-1,11,13,-1,15,-1,-1,-1,17,19,-1,-1,-1,-1,-1],"loss_changes":[4.940211E1,4.5904503E1,3.3006105E0,2.7959602E1,0E0,6.744421E0,0E0,5.034009E-1,1.4465889E1,0E0,1.0137971E1,0E0,0E0,0E0,6.5774307E0,2.142869E0,0E0,0E0,0E0,0E0,0E0],"parents":[2147483647,0,0,1,1,2,2,3,3,5,5,7,7,8,8,10,10,14,14,15,15],"right_children":[2,4,6,8,-1,10,-1,12,14,-1,16,-1,-1,-1,18,20,-1,-1,-1,-1,-1],"split_conditions":[2.2191093E1,2.6E1,2.4650902E1,5.6E1,-2.415775E-2,5.9E1,-2.5685105E-2,1.6E1,5.4018723E1,-2.4256734E-2,2.6E1,1.1089829E-2,-2.039778E-2,-1.564944E-2,1.4541724E2,3.3E1,-2.1124022E-2,1.4608775E-1,9.76477E-3,9.885486E-2,9.640337E-3],"split_indices":[3,2,3,1,0,1,0,0,6,0,2,0,0,0,6,0,0,0,0,0,0],"split_type":[0,0,0,0,0,0,0,0,0,0,0,0,0,0,0,0,0,0,0,0,0],"sum_hessian":[1.2161628E2,3.358324E1,8.803304E1,2.0972618E1,1.2610623E1,2.1547585E1,6.648546E1,4.6271343E0,1.6345484E1,